nep4 2 F Sc 
cutoff 8 5 141 40
n_max 8 8
basis_size 8 8
l_max 4 2 0
ANN 50 0
  2.8904563e-02
 -3.9475583e-02
 -3.8176607e-02
 -1.0488769e+00
 -1.2547513e+00
 -3.4490582e-01
 -6.5090470e-02
 -3.4452748e-02
 -4.4287844e-03
  7.4827917e-02
 -4.4254559e-01
  4.4266254e-02
 -5.7310365e-02
 -1.4455070e-01
 -8.4745608e-02
 -5.0771926e-02
  4.0632930e-02
  1.1816721e-01
  3.7965104e-02
 -8.8085800e-02
 -1.0553426e-01
  1.0156767e-01
 -5.8323823e-02
 -4.8397437e-02
  5.8972321e-02
 -7.0820063e-01
 -8.9249179e-02
  1.0462572e-01
 -2.1941361e-01
  8.6460881e-02
  1.1964471e-01
 -2.7813790e-02
  3.2011625e-01
 -2.2785859e-01
 -6.7641385e-02
  2.6773286e-01
 -2.0887122e-01
 -1.4712429e-01
  1.6605301e-02
  6.7965209e-02
  1.3023901e-01
 -5.3239650e-01
 -1.7515628e-01
 -1.4136523e-01
 -5.4127157e-02
  3.1180970e-02
 -1.3949925e-01
  1.2186871e-01
  5.7395224e-02
 -3.1661887e-03
  2.3557570e-02
  2.7582744e-02
  4.8051041e-01
  3.5146913e-01
  5.0418496e-01
 -6.8818867e-01
 -7.8195226e-01
  8.1000678e-02
 -1.4440129e+00
 -5.9731084e-01
  1.4412485e+00
  4.2656837e+00
 -3.4486255e-01
 -8.5571253e-01
  3.1302783e-01
 -1.3192521e+00
 -1.5677415e+00
 -1.1930497e+00
 -4.9138865e-01
  3.0453810e-01
  1.5004807e+00
 -1.4151952e-01
  9.8112190e-01
 -1.6529540e+00
 -5.4269526e-02
 -1.2119868e+00
 -7.6648456e-01
 -2.5395539e+00
 -5.1662111e-01
  1.5238424e-01
  4.0205918e-02
 -6.9354244e-02
 -6.1068255e-01
 -5.0508773e-01
 -2.6976162e-01
 -4.7815880e-01
  5.8513469e-01
  1.8763986e-01
 -1.4885511e+00
  1.4967659e-01
 -5.8383119e-01
 -1.4831984e-01
 -4.4739712e-02
 -1.6959895e+00
  3.8980685e-02
  4.9044749e-01
 -8.8798413e-03
 -6.7356937e-02
  1.4330642e-02
  7.7235557e-02
 -9.7832873e-02
 -8.8043444e-02
 -1.8028645e-03
  2.8425518e-01
 -9.4323605e-01
  2.6895895e+00
  3.0572589e-02
  4.9597479e-02
 -9.3760085e-01
 -8.6534464e-01
 -8.1735319e-01
  6.8395710e-01
 -3.7707010e-01
 -3.2372558e-01
 -3.4320444e-01
  5.7258110e-02
  3.6037520e-01
 -2.7531704e-01
  9.2787221e-02
  1.3270290e-01
  4.0574485e-01
 -5.8821785e-01
 -5.8198318e-02
  1.9343178e-01
 -2.4120102e-02
 -1.1652871e+00
 -5.2709309e-03
 -8.2382160e-01
  9.3094862e-01
 -9.4952539e-02
  2.7805258e-02
  1.5187892e-01
  3.0926082e-01
 -9.6638002e-02
  6.7045771e-02
  3.2231286e-02
 -2.2719915e-01
  3.5185624e-02
  3.0134082e-01
 -8.8764511e-02
  1.0188886e+00
  2.7181046e+00
 -5.8446079e-01
  5.6516302e-01
 -2.5180426e-01
  2.1228649e-01
 -1.2823960e-01
 -1.5380815e-01
 -2.0124715e-02
 -7.9864815e-02
  4.2798203e-01
 -2.9116723e-01
 -8.3384581e-02
  9.1258548e-02
  2.0746209e-03
 -8.0657855e-02
 -3.3585537e-02
  7.1111538e-02
  8.6317964e-02
 -1.8249798e-01
  9.7995184e-02
 -1.4189431e-01
 -2.4634015e-02
 -3.0032841e-02
 -4.1046515e-01
  2.9069236e-01
  2.5317854e-01
  4.0830174e-01
  6.0022080e-01
  6.7056902e-02
 -2.1912843e-01
  2.7761634e-02
  3.3059731e-02
 -1.2671590e-02
  1.8765907e-01
  2.1486412e-01
  5.9253997e-01
  9.7346649e-02
 -4.2983487e-02
  2.8182334e-01
  1.8334948e-01
  3.0646455e-01
  2.5800827e-01
  2.3435101e-02
 -6.1398730e-02
 -3.6650348e-02
 -1.0926438e-01
  1.8734200e-01
 -8.6945131e-02
  4.4471547e-01
 -2.0995611e-02
 -1.3060172e-01
  9.0964027e-02
 -2.6130730e-02
 -3.1173371e-02
  9.3248747e-02
 -1.0842374e-01
 -1.7301592e-01
  6.2671348e-02
 -2.0853687e-02
  4.5025972e-01
  4.2462271e-01
 -1.6694614e-01
  1.1892578e-01
  2.2439386e-01
 -4.2109128e-02
  2.0811213e-02
  3.7556082e-01
 -4.4669472e-03
 -5.2082980e-01
  5.4489639e-02
 -2.3141046e-01
  5.1595006e-02
 -6.9606140e-02
  1.0979631e-01
 -1.8211156e-01
  1.0544723e-01
 -1.1489005e-01
  2.2569178e-01
  1.6138276e+00
 -2.7414421e-02
 -2.2455528e-02
 -1.9737992e-02
 -1.4755445e-02
  8.8429168e-02
 -8.3615951e-02
  1.5225263e-01
 -1.5458599e-01
  2.2469836e-01
 -3.2592405e-02
 -1.6287452e-01
 -6.4726450e-02
 -2.6306072e-02
  1.0504478e-02
 -1.9613126e-01
  4.9443785e-02
 -6.8495639e-02
 -4.8036925e-02
  2.2923451e-02
 -1.9160887e-02
  1.2698725e-01
 -6.3929051e-01
 -2.9673519e-02
  5.6452904e-02
 -2.6970595e-01
 -7.2202623e-02
  3.1495756e-03
  2.4684602e-02
  5.3766489e-02
  1.8914218e-01
  1.4205388e+00
 -2.8679725e-02
 -5.7433385e-02
  8.4567383e-02
 -2.0782329e-01
 -5.7892752e-01
  8.4877210e-03
 -1.7632949e-05
  1.2682158e-01
  1.7484906e-01
 -2.5022426e-01
  1.8436238e-01
  4.3903448e-02
  1.3736861e-02
  1.4105784e-02
  6.8751715e-02
 -3.9886957e-01
  1.8389495e-01
  1.5855707e-02
  1.8795842e-01
  2.8314875e-02
 -1.8642181e-01
  1.5361159e-01
  1.1909606e-01
  3.0027222e-02
  2.1351942e-01
  2.7276576e-01
  2.6871106e-02
  8.3541922e-02
 -1.0934698e-01
 -3.6566190e-02
 -1.5378501e-01
 -1.3449855e-02
 -1.1746996e-02
  2.1319114e-02
  1.7255685e+00
 -1.1475352e-01
  1.6682124e-02
 -1.2135247e-01
 -1.1273350e-02
 -1.7532626e-02
  2.3967130e-01
  1.7452431e-01
 -1.0413315e-01
  5.1336024e-02
 -4.7609480e-03
 -8.8163698e-03
  1.3805299e-01
  3.5741442e-01
  1.4035700e-01
 -6.1453059e-03
  6.2466357e-02
  9.9653381e-01
 -2.6208632e-02
  3.7296766e-01
 -8.9481557e-03
  6.4925916e-02
 -1.2120795e-02
 -2.8929824e-02
 -1.7684275e-01
 -1.6203200e-02
 -1.8126833e-01
 -9.0660840e-02
  1.5901475e-01
  1.6007470e-02
 -8.0416976e-03
  1.2320640e-01
 -1.2617767e-01
  3.5544679e-01
  1.6751274e-01
 -9.2932187e-02
 -8.2881801e-02
 -2.4827300e-03
  3.5542697e-02
 -2.9867509e-01
 -4.3009245e-01
  3.0566797e+00
 -8.3758366e-01
 -2.5010176e+00
  4.4034123e-01
  4.7771356e-01
  1.6399541e+00
  4.1788536e-01
  1.8820399e-01
 -1.6601294e-01
 -2.7261624e-01
 -1.1705734e+00
  1.8625470e-02
  1.2756769e-01
  5.8655304e-01
  1.1228034e-01
 -4.5142259e-02
 -6.9990683e-01
  1.7550366e-01
 -2.9897755e-01
  1.4044483e-01
 -1.9196959e+00
  2.0747998e+00
  5.4205477e-02
  3.0118231e-02
 -1.3726394e-01
 -8.3947584e-02
 -1.6074364e-01
 -1.9883418e-02
 -1.0892563e-01
 -5.4746806e-03
  6.1255348e-01
  1.0965377e+00
  1.2106364e-01
 -1.1227829e-02
  4.0062424e-02
 -6.7385986e-02
 -3.2300826e-02
  5.3487408e-01
  1.2209763e-01
  1.8364692e+00
  1.6257480e-02
  2.5363991e-02
 -3.4414002e-01
 -1.3136764e-01
 -6.7956245e-01
  2.4736375e-02
 -8.4665768e-02
 -8.5860446e-02
  1.0597222e+00
 -2.3054679e-01
  2.8723878e-01
 -2.0791689e-01
  1.0716147e-01
  3.6249304e-01
  7.9562902e-01
  6.4143556e-01
 -3.9381009e-02
  1.0218883e-01
  1.3556570e-01
  1.9222489e-01
 -2.0905733e-02
  8.1012389e-03
 -2.7776942e-01
 -1.1735670e-01
 -2.2461923e-02
  2.3014180e-01
  2.5565317e-01
 -5.2595101e-02
  4.5744557e-02
  6.3496262e-02
  7.3914790e-01
  2.0421073e-01
  6.6867135e-02
  1.6567686e-01
  1.5025724e-01
 -7.5225592e-02
  9.1434307e-02
  5.8681078e-02
  3.9957464e-02
  2.1805935e-01
  1.2343574e-01
  7.8634039e-02
  1.9118147e-03
  2.7322581e-02
  1.0010514e-01
  8.6311869e-02
 -1.0035075e-01
 -6.0933113e-02
  7.3920548e-02
 -1.7982187e-03
  1.1654697e-02
 -9.7992038e-03
 -7.6803002e-03
  8.9157782e-02
 -2.2511646e-02
  2.6371405e-02
  3.4885604e-02
  1.0929325e-01
  1.3471165e-01
  8.8852473e-02
 -6.1955106e-02
 -1.3437313e-02
  8.3980057e-03
 -2.5291847e-02
 -1.4737888e-03
 -3.0326012e-01
  2.1860959e-01
  4.9062562e-01
 -1.4439003e-01
 -2.4848650e+00
 -1.1486814e-02
 -1.0320555e-01
 -1.2710627e+00
 -7.4035430e-01
  9.6273713e-02
  5.0173206e-03
  2.4391498e-01
  2.0444995e-02
  3.1911466e-02
  9.6844599e-02
  3.4458436e-02
  1.0320050e-01
 -2.7168524e-01
  5.3278573e-02
 -1.7830463e-02
  4.1107543e-02
  3.7010524e-02
  1.4876260e-01
  4.1849371e-02
  5.8581438e-02
 -1.2021659e-01
  4.9893460e-01
 -8.4214791e-04
 -7.6328501e-02
 -1.7064452e-01
 -1.8717119e-01
 -3.3981554e-02
  3.3192258e-02
 -9.0188898e-02
 -1.4080764e-01
  1.0632656e-02
 -1.6826963e-01
  1.7579094e-01
 -2.1645319e-01
  3.8263671e-02
 -7.7831545e-03
 -1.3191724e-01
 -8.4397040e-02
  2.4519163e-01
 -8.5197553e-02
 -2.3073839e-01
  1.7171683e-02
  9.5244713e-02
  1.7784506e-01
 -5.7813716e-01
 -3.3490598e-02
  1.8957123e-02
 -2.0731844e-01
  1.5062107e-02
 -1.4287962e-01
  1.1171900e-01
  6.6562313e-01
  3.3944961e-01
  2.7698553e-01
 -7.7825719e-01
 -1.8044574e+00
 -6.9656903e-01
 -4.6543024e-02
 -7.1736410e-02
 -3.5170630e-01
 -5.2265596e-02
  1.3813628e-01
  9.4471818e-01
 -1.4440511e-01
  4.1395348e-01
  2.5964674e-01
  5.5016017e-01
  1.2152974e-01
  7.1662106e-02
 -4.0653905e-01
 -7.5107917e-02
  3.1149616e-02
  2.9143107e+00
 -3.5870966e-01
 -1.2798704e-02
  3.2321748e-01
 -1.3784298e-01
  3.5541731e-01
 -5.2275095e-02
 -1.3283382e-01
  8.5159868e-02
  5.9759259e-02
  3.3621632e-02
 -6.2075770e-01
 -4.5240092e-01
  1.2315235e-01
  4.0472952e-01
  1.0939560e-02
 -1.5053875e-03
  7.0808530e-02
 -3.4319550e-02
 -3.4876890e-02
 -1.2480006e-01
  9.8521107e-01
 -3.4330070e-01
 -2.9656515e-02
  2.0284662e-01
 -3.4336142e-02
  6.1239451e-02
 -6.2984124e-02
 -1.9157471e-01
  3.7791859e-02
  7.1900517e-02
  1.2375855e-01
 -4.4367602e-03
  2.5090456e-01
 -8.9383177e-02
 -2.3655671e-01
 -8.2641721e-02
  2.7658403e-01
  3.0840093e-01
 -9.6521758e-02
 -1.4029489e-01
 -4.0993407e-02
 -1.0847183e+00
 -4.4792779e-02
 -1.1627273e-01
 -5.5775843e-03
  6.8323612e-01
  7.3477276e-02
  3.8980275e-02
  1.1287120e-01
  3.1752106e-02
  2.9551846e-01
  7.3724077e-03
  2.2223415e-02
 -2.7748764e-02
 -2.5778083e-02
  4.6161017e-01
  2.3986384e-02
 -2.0206494e-02
 -4.6989717e-02
 -7.3879197e-02
 -2.0591095e-01
  4.8452392e-02
 -1.5638646e-02
  1.9942108e-01
  1.4598874e-04
 -5.7114232e-02
 -6.6685081e-02
  8.1185803e-02
 -5.0978987e-03
  1.0065092e-03
  4.3362286e-02
 -8.7158479e-02
 -4.8827503e-02
 -1.8273246e-01
  3.1059167e-01
  2.3788651e-02
 -2.4617089e-01
  8.6475164e-02
 -7.8644358e-02
 -5.2570067e-02
 -1.4665139e-02
 -2.6703924e-01
  9.3705773e-02
  2.6955041e-01
 -8.5234165e-02
  1.8069096e+00
 -1.1711733e+00
 -1.1555345e+00
 -1.8568647e+00
  5.3315526e-01
  1.7627155e+00
  5.2381814e-01
  9.9608487e-01
  2.4304314e+00
 -4.8402265e-01
  3.4103498e-02
 -5.7248688e-01
 -2.0749974e+00
  7.3512769e-01
  1.4086801e+00
  5.9792358e-01
 -8.8123018e-01
 -1.1918421e+00
  1.0567014e+00
 -5.8102356e-03
  4.0362567e-02
  1.5333298e+00
  1.7719170e-01
  5.0657157e-02
 -2.2150161e+00
 -7.1893030e-01
  6.6204391e-02
 -1.6651789e+00
 -5.9954923e-01
  5.2583015e-01
  8.3438969e-01
 -6.9167688e-02
  4.6036240e-01
 -4.8596743e-01
  2.2552727e-01
  8.2582742e-01
  3.7356398e-01
  4.4633220e-03
  1.1332226e-01
  1.4485036e+00
  4.5482224e-01
  1.5685360e+00
  4.1699192e-01
  1.5957676e-01
  2.0923911e-02
  9.1281250e-02
 -1.2906474e-01
 -2.1925041e-01
  4.2904475e-01
  7.8014411e-02
  2.6183842e-02
 -1.5332960e+00
 -2.7046445e-01
 -1.5407911e-01
  5.8674492e-02
 -2.9574243e-02
 -2.4077311e-01
  2.9662561e-02
  2.1596913e+00
 -3.7280094e-02
  9.9696415e-03
  6.0475532e-02
  1.1412095e+00
 -9.7408396e-01
  1.8900114e+00
 -7.2746098e-02
  8.7400384e-02
 -4.9190607e-02
 -3.8642764e-02
  2.0782571e-02
 -5.1042736e-01
 -1.3953449e-01
 -1.3058397e-02
 -6.9725320e-02
 -1.2246344e-01
 -7.1915858e-03
  7.4691482e-02
  2.1836643e+00
 -7.0635468e-02
 -9.0344898e-02
  1.7104053e-01
  5.3432181e-02
  8.8479847e-02
  2.0290676e-01
 -3.4647517e-02
 -1.0206891e-01
 -3.3218518e-02
 -1.3425077e-01
  2.4063064e-02
  1.6766548e-01
  7.1571730e-02
  1.0738855e-01
  7.9510167e-02
  3.3030760e-02
 -3.1206615e-02
  4.6941455e-02
 -5.9370704e-02
 -3.3468265e-02
  1.8128137e-01
 -7.8690290e-02
  2.1919087e-02
  1.8784355e-02
 -8.5228058e-03
  2.0392187e-01
  6.9164261e-03
  3.7715200e-02
  3.3961663e-01
  5.5325281e-02
 -1.0494979e-01
 -3.0669630e-01
 -1.3529602e+00
  2.2687288e-01
  1.3433303e-01
  3.2278091e-02
 -6.0386483e-02
 -3.4058496e-01
  1.6266729e-01
 -3.8501970e-02
  1.3385449e-01
 -9.2574149e-02
 -1.1033387e-01
  8.7179653e-02
  5.0374198e-01
  4.3547615e-01
 -1.9120419e-02
 -1.6458029e-02
  2.2637962e-01
 -1.3319761e-02
  5.8886927e-02
 -2.2044280e-01
  3.3483890e-01
 -4.2859289e-01
  1.2182091e-01
 -1.8849004e-02
 -5.6142461e-01
  2.2870502e-02
  1.0989214e-01
 -3.7976190e-02
  2.0440737e-02
 -5.2117038e-01
 -1.6032158e-03
  7.4469909e-02
 -2.8315559e-01
 -8.9931354e-02
  1.6663958e-01
  1.6182561e-01
  2.3835165e-02
  1.2456324e-02
  6.7460857e-02
 -1.4918232e-01
  4.0080529e-02
 -3.5077270e-02
 -6.3634194e-02
  7.1973123e-02
 -9.1899246e-02
 -2.9678447e-02
  7.7181941e-01
  2.1518044e-01
  2.4827734e-02
  4.8094615e-02
 -1.4327273e-01
 -1.4857116e-01
 -1.0439396e+00
  2.8052089e-01
 -1.0576341e+00
  1.1832874e+00
 -5.8517033e-01
 -9.3268776e-01
  1.3610675e+00
  1.1306000e+00
 -5.8619416e-01
  1.7967737e-01
 -1.0587195e+00
  1.1009395e+00
  9.6127588e-01
 -1.8732108e-01
 -8.0987692e-01
 -2.7004200e-01
 -3.2933142e-02
  6.0376894e-01
 -8.1391931e-02
 -1.3055238e+00
 -4.0910831e-03
  8.5142978e-02
  3.4623957e-01
 -5.7266551e-01
  6.2992349e-02
 -1.2973760e+00
 -2.0367855e-01
  3.5622805e-01
 -7.2620070e-01
 -2.3027336e-02
  2.0028477e+00
  1.0445133e+00
 -8.7565804e-01
 -6.5555423e-01
  2.2465307e-01
  6.5758932e-01
 -1.2285258e-02
 -1.8866492e-02
 -5.8421218e-01
  1.9616191e+00
  1.0391957e-01
  9.9818969e-01
  3.5611612e-01
  4.5413771e-01
 -1.5588342e-02
  2.0824374e-01
 -2.1534592e-01
  9.4243273e-02
  7.4428208e-02
  1.1163610e-01
 -2.4080886e-02
  3.8114214e-01
 -1.3142178e+00
  1.1347342e-01
 -8.1808281e-01
  3.6704051e+00
  1.5073127e+00
  9.0376472e-01
  1.6900706e-03
  1.3161631e+00
  4.3071803e-01
  1.4113320e-01
  1.2564894e+00
 -1.0930839e-01
  3.3730659e-01
 -1.1932783e-01
  9.1821647e-01
  7.3810589e-01
 -7.9016751e-01
 -2.0519280e-01
  1.7305264e+00
  5.6729443e-02
 -2.5349983e-03
 -7.3908842e-03
 -6.8857230e-02
  6.7810094e-01
  4.1349411e-02
  1.9659795e+00
  9.8702008e-01
 -1.1779473e+00
 -6.4648585e-03
 -5.2154940e-02
  1.0098425e+00
  1.9973700e-03
  9.1396493e-01
  1.6711079e-01
  8.3558306e-02
  6.4909354e-02
 -3.5744536e-01
  1.6458869e-01
 -3.9667785e-02
 -3.1921038e-01
 -2.5244722e-02
  1.9073540e-01
 -1.0705991e-01
 -2.2779351e-01
 -1.4336814e-02
 -3.1987816e-01
  9.0908521e-01
 -1.6235979e-01
 -3.7086476e-02
  1.9106968e-01
 -6.2213677e-01
  9.0571873e-02
  1.9619003e-02
  1.7163742e-01
  9.4025709e-02
  1.5609840e-02
  1.5288877e-01
 -5.3954232e-02
  1.4080836e-01
 -6.0772270e-02
  2.1002395e-02
 -4.5864058e-01
  3.4805813e-01
  7.0893630e-02
 -1.1861689e-01
  6.3922238e-01
 -5.7999492e-02
 -3.2313770e-01
 -2.4756459e-03
 -3.1391025e-01
 -2.0084751e-01
 -3.6517244e-02
  1.8869570e-01
 -7.2705626e-02
 -1.7116693e-01
  2.2405596e-01
  1.1194140e-01
  3.3130443e-01
  1.7724547e-01
  8.4807664e-01
  5.7488721e-02
 -1.5966351e-01
 -5.1151112e-02
 -3.7992373e-01
 -2.4644159e-02
  4.2323729e-01
  2.0903381e-02
 -7.5888745e-02
 -1.1561938e-01
 -5.3821528e-01
  5.6439191e-02
 -2.4991092e-01
 -1.9002138e-02
 -9.2554183e-05
  1.9872142e-01
 -1.6989563e-02
 -1.6197275e-02
  4.6875950e-02
 -1.4648244e-01
 -4.1859433e-02
  3.6875695e-02
  6.7786174e-03
 -2.2727032e-03
  2.2680850e-01
 -8.4203377e-02
  1.8014202e-01
 -1.3141456e-02
  1.0947856e-02
  3.1668481e-01
 -1.1250110e-02
 -6.9195068e-01
  2.1812505e-01
 -5.5561513e-01
  2.6776874e-01
  6.3974366e-02
  7.2885013e-01
 -1.5860398e-01
 -1.5112514e+00
  5.7805777e-01
 -1.0195574e+00
  3.6608493e-01
  2.0418912e-01
  1.0571175e+00
 -4.4852349e-01
  1.1641578e-01
 -6.9425672e-02
 -1.1613350e-01
 -4.7342557e-02
 -2.3503501e+00
 -1.7321080e-01
 -1.4076777e+00
  9.6282683e-02
 -4.7405081e+00
  3.1877704e+00
 -1.5549551e+00
  1.0369589e+00
 -9.9118131e-01
 -2.1624526e-01
  6.5388817e-01
  6.9864258e-02
  4.8430404e-01
 -1.4434068e-01
  2.9853003e-02
 -6.2695003e-01
  5.4527968e-01
  1.2105335e-01
  3.2597157e-01
  7.7992684e-01
  3.7005723e+00
  1.0836151e+00
 -1.2071989e+00
  5.3377700e-01
 -2.1102426e+00
 -1.1762155e+00
 -4.0358415e-01
  1.7262927e+00
 -1.0690522e+00
 -2.2952886e-02
  4.1081518e-01
 -3.0415092e-02
 -1.6966714e-01
 -6.4430571e-01
  9.6500534e-01
 -7.2072679e-01
  5.5048615e-01
 -1.1275712e+00
  1.1039069e-01
  2.4959205e-01
 -4.9002010e-02
  4.6947774e-01
  1.9242670e-01
  5.2604351e-02
  7.6798931e-02
  1.4576805e-01
  3.6516640e-02
  1.1554106e-02
 -2.2710018e-01
  1.1114287e-02
  2.5391452e-02
 -1.5658125e-02
 -1.9123320e-02
 -3.0804239e-02
  2.2505763e-01
  1.2228042e+00
 -1.0288130e-02
 -2.0020688e-01
  7.1490385e-02
 -1.3939681e-02
 -1.0006110e-01
 -1.4331897e-02
  6.8866871e-02
 -2.8926153e+00
 -1.2152191e+00
 -1.5020713e-02
  2.2777373e-02
 -1.2530886e-01
  1.6542660e-01
 -9.0388685e-02
 -5.1137377e-02
 -1.8343605e-02
  6.3042484e-02
  2.5101501e-01
  6.7149855e-02
  7.4430749e-02
 -3.7805278e-02
  3.0478925e-01
 -7.4553227e-01
 -5.2189443e-02
  9.6438289e-02
 -2.8203431e-01
  4.9871805e-01
  1.0804519e-01
 -4.5486119e-02
 -3.9943606e-02
  1.3571851e-01
 -2.0300725e-02
  1.3785355e-01
  9.5571421e-02
 -2.8331645e-02
 -2.9283604e-01
  4.4893566e-01
  5.7521868e-01
 -2.8017044e-01
 -6.4777386e-01
 -2.1269901e-01
 -1.5462977e+00
 -2.3827679e+00
  1.9692256e-01
 -3.7613229e-03
  2.8256240e-01
  2.6670499e-02
  8.9871846e-02
  8.6819899e-01
  2.9026791e-01
  2.2094691e-01
  1.0801503e-01
 -3.9739805e-01
  7.0193611e-02
 -9.0075629e-03
  4.2245812e-03
  1.6468515e-01
 -3.9893529e-01
  2.3775041e-01
 -6.1091065e-01
  8.7966956e-02
 -8.1993872e-01
  2.7878115e-01
 -2.0720234e+00
 -3.5498440e-01
  1.0607321e-01
  1.5542939e-01
 -1.5483743e-01
 -1.3014513e-01
  1.4621547e-01
 -1.1252548e+00
 -8.4344652e-03
 -7.0855886e-01
 -7.5309908e-01
 -7.3885846e-01
  5.3203728e-02
 -2.8484363e-02
  2.3922144e-02
 -6.7234617e-01
 -4.7964230e-01
 -2.8056929e-01
  2.3515303e-02
  1.0610569e-01
  2.5030187e-01
  4.3622443e-01
  1.6226222e-01
 -2.5837195e-01
 -3.9324027e-02
 -9.6590775e-01
  1.7530887e+00
 -1.9980801e+00
 -3.9496206e-02
  1.1090423e+00
  1.4847307e+00
  2.7810805e+00
  4.2520648e-01
  3.4139650e+00
  8.8496894e-02
  7.9723310e-01
 -5.2172697e-01
  2.2295866e+00
 -2.0216064e+00
 -2.3417010e+00
 -3.0684534e-01
 -1.8660261e-01
  1.3999806e-02
 -2.4299657e-02
 -8.6952138e-01
  3.0781913e-03
  4.5040303e-01
 -1.4156662e+00
  2.4434068e+00
  6.6922152e-01
  1.2698876e+00
 -2.4688745e-02
  2.6921287e-01
 -3.3547500e-01
  1.7273072e+00
  4.2746839e-01
 -1.1990995e-01
  2.6288486e-01
 -2.9460967e-01
 -8.2811135e-01
 -3.8015115e-04
 -2.7639249e-01
 -6.2077511e-02
 -4.8457822e-01
 -3.1011081e-01
  1.2268146e-01
 -6.1405212e-01
  6.7913145e-01
 -1.0707140e+00
 -2.0903713e-01
 -3.3735874e-01
 -2.7094075e-01
  2.8828704e-01
  5.3623870e-02
 -2.9706343e-03
 -1.4644549e+00
 -6.5829182e-01
 -1.1663079e-01
 -6.1838351e-02
  9.4256610e-01
 -2.0248245e-01
 -4.2593458e-01
 -4.3497190e-02
  3.3379573e-01
 -3.2209280e-01
  3.2442799e-01
  2.5229824e+00
 -6.5301806e-01
  1.0384532e-01
  1.0668904e-01
 -5.4709792e-02
  9.2869312e-02
  2.0904693e-01
  5.9447739e-02
  2.2980491e-02
 -1.1610827e-02
 -1.5001239e-02
  4.2606939e-02
  1.3537871e+00
  4.7356632e-02
  1.0082170e-01
  1.3324910e-01
 -2.7505804e-02
 -8.4307060e-02
  2.2568922e-02
 -3.6794208e-02
 -2.9432506e-03
 -2.2991645e-01
  3.0818099e-01
 -1.0584161e-01
 -2.1620178e-01
  2.3739699e-01
  1.9377294e-01
 -3.3475775e-02
  2.7951432e-02
  1.2166280e-01
 -4.9125120e-01
  7.8333486e-03
  3.9868327e-03
  1.1884123e-01
 -2.6336052e-02
 -8.7852496e-01
 -3.7496682e-02
  2.2096758e-01
  4.8783716e-02
  9.8700589e-04
 -6.4520426e-02
  4.0174022e-01
  1.5912658e-01
  8.6757168e-03
  2.7282540e-02
 -1.1589701e-01
  2.3964088e-02
 -6.1409332e-02
  2.7373430e-01
 -1.5462573e-01
 -2.5532860e-01
  5.2755522e-03
  1.0089510e-01
  2.8286031e-02
  9.5161870e-02
 -1.1526803e-01
  2.1077423e-01
  8.6681046e-02
  1.4788640e-01
 -7.2305775e-01
  1.2490187e-01
  2.8703092e-02
 -1.1918553e-01
  2.9088079e-03
 -1.5269567e-01
  9.1179803e-02
  8.4783107e-02
 -2.1795686e-02
  4.1716425e-03
  4.0735167e-01
 -1.7094763e-02
 -4.8081349e-03
  1.2323108e-01
 -2.4220538e-01
 -7.6815628e-02
 -4.7006652e-02
  1.1949125e-02
  4.0695515e-01
 -4.0314201e-02
 -4.4257078e-02
 -4.6635675e-03
 -8.0942553e-01
 -1.9348608e-03
 -3.6931354e-01
 -7.6615728e-02
 -3.4990430e-02
  5.2639205e-02
 -8.7207481e-03
  4.2468110e-01
  4.1545663e-02
 -5.7339724e-02
 -4.4662546e-02
  7.4097008e-02
 -8.5132793e-02
  1.6270594e-01
  3.4416091e-02
 -6.4012975e-02
  1.0753324e-01
 -2.0901358e-02
  1.4549649e-01
  1.0640356e-01
 -1.0454284e-01
 -2.6886362e-01
 -4.3263775e-01
 -5.6957316e-01
  3.5086215e-02
 -1.6453234e-02
  1.0951890e-02
 -6.5000868e-01
  5.9844285e-01
 -5.6278042e-02
  4.1985693e-03
 -2.0884451e-01
  1.9732237e-01
 -3.0453173e-02
  1.0496186e-01
  1.1499092e-01
 -4.4093829e-01
  1.3307031e-03
  3.9713103e-02
  2.2970458e-02
  2.9103127e-01
 -2.3629198e+00
  3.7969002e-01
 -1.0496215e-01
  1.3821303e-02
  1.2436426e-01
  1.0117177e-03
  2.0162970e-01
  2.2651276e-01
  1.0954166e-01
 -1.6928694e-01
  2.2112413e-01
 -9.1033384e-02
  1.3911264e-01
  8.1478201e-02
 -9.6840868e-03
 -1.2534802e-01
 -3.7980691e-01
  9.8881066e-02
  1.6225066e-02
 -2.9863691e-02
 -2.1087973e-01
 -1.3289462e-01
  3.0407527e-01
 -2.9468585e-02
 -4.6222847e-02
  2.3111609e-01
 -2.5630218e-01
 -1.3383801e-01
  1.0975300e-01
 -7.4102491e-02
 -9.6818386e-03
 -1.7456686e-01
  7.4718952e-02
 -4.1430406e-02
  6.0176396e-01
 -2.5408593e-01
 -5.6318123e-02
  1.6164979e-01
  3.4255034e-01
  5.8343336e-02
  1.5270500e-01
 -1.2950733e-01
 -9.8258756e-02
 -3.0659532e-02
  6.7171410e-02
 -1.3711962e-01
  6.7458801e-02
  2.2150386e-02
  1.3492726e-01
  1.1212068e-02
  4.7625665e-02
  1.0009719e-02
  7.9840096e-03
  3.4702879e-01
  3.1097694e-03
  6.5384656e-02
  2.9738925e-02
 -4.3963301e-01
 -6.9325559e-02
  4.2721152e-02
  1.5274284e-02
  1.1463834e-01
  6.8769872e-02
 -1.2370886e-02
  2.7213177e-01
 -2.8590897e-02
  1.9161218e-01
  9.8137602e-02
  2.7600856e-02
 -4.0832847e-02
  1.2136292e-01
 -4.9460817e-02
 -2.7002506e-02
 -4.7332004e-02
  4.2063729e-03
 -1.4425533e-01
 -1.4926334e-01
  2.8258508e-02
  1.9240315e-01
  2.2705585e-01
  1.8626885e-02
 -4.1009314e-02
 -3.7037528e-01
 -9.8087922e-02
 -2.1929821e-02
  2.1618958e-01
  2.6238266e-02
 -8.5829425e-01
  3.1831344e-03
 -1.0146496e-01
  2.6418525e-01
 -2.8505036e-01
 -2.1576710e+00
 -6.1567917e-02
  4.6022102e-01
 -1.4963788e-01
  1.2640145e-01
 -4.7457099e-01
  3.7147999e-01
  1.0032340e+00
 -4.4690210e-01
 -4.9844593e-02
 -3.3356100e-01
 -2.3790054e-01
 -9.3074635e-02
  1.3946360e+00
  1.7895969e+00
  3.1038737e-01
  7.1717954e-01
 -3.8415350e-02
 -2.2239210e-02
  3.2442334e-01
 -7.1693373e-01
  1.0161384e-02
  8.9241827e-01
  1.4686167e-01
  3.4578410e-01
  4.0070015e-01
 -1.0350350e-01
  1.3853842e-01
  2.7740654e-01
  1.8661208e-02
 -2.8968710e-01
 -9.2223518e-02
  2.9049543e-01
  8.6357993e-01
 -8.9936025e-02
  6.9804087e-02
  9.3290603e-01
 -5.0859395e-02
 -3.0007443e-01
 -4.2409234e-02
 -2.7968961e-01
 -6.4680681e-02
 -5.7543334e-02
  2.1988177e-01
  1.5660692e-02
  1.9838211e-01
  3.0430597e-01
  7.0691593e-02
 -1.4427948e-01
 -1.4606550e-01
  4.4257653e-01
  1.1761551e+00
  1.9492957e-01
  2.0460199e-01
  1.2759852e-01
 -1.1211486e+00
 -6.8636888e-01
 -2.2262816e-01
  2.3522971e+00
 -5.5175328e-01
  1.5818987e-02
  2.9767805e-01
 -3.0337438e-01
 -4.5549017e-01
  8.9657515e-01
  4.9802493e-02
 -2.7744992e-02
  3.0546647e-02
  1.8658902e-01
 -1.3971768e-01
  3.4456596e-02
  3.6505185e-02
  1.1147013e-01
  5.9144855e-01
  3.0110697e-03
  1.9645904e-01
 -4.2819011e-01
 -2.0962456e-01
 -4.0524653e-01
  1.9236776e-01
  3.7673908e-01
 -3.6694583e-02
  2.3404758e-01
 -5.4116569e-02
 -1.8439494e-02
  1.0662451e-01
  9.9910488e-03
  1.2461524e-01
 -8.8661723e-02
  4.4044081e-02
  2.5393534e-01
 -3.8018242e-02
  4.4771638e-02
  3.6066562e-02
 -4.0987696e-02
  2.8247181e-02
 -1.9874805e-01
 -1.2198875e-02
 -7.9668753e-02
 -1.7288083e-01
  2.3912743e-01
  5.4294266e-02
  3.8735509e-02
 -2.9208964e-01
 -9.0077944e-02
 -2.6628349e-04
  5.6234419e-02
 -1.5048403e-02
 -4.8340499e-02
  1.2759046e-01
  1.0530004e-01
  3.4634113e-02
  4.2383861e-02
  6.7688182e-02
  8.1447944e-02
  8.5415781e-02
  8.8390395e-02
 -1.0373843e-01
  3.2548890e-02
  1.0711979e-02
  2.1417635e-02
 -2.4127938e-02
 -1.0043856e-01
 -8.8408748e-03
  1.8099847e-01
 -5.3419084e-03
 -2.7975209e+00
  4.0032666e-02
 -2.0131497e-01
  1.1469112e-01
  7.2380938e-02
 -1.6410752e-01
  9.2373431e-02
 -1.5012017e-01
  1.2903842e-02
 -2.3902722e-02
 -6.4832009e-02
 -1.2604786e-01
  5.0112945e-01
  1.8559504e-02
  1.0017291e-01
 -8.5390676e-03
  7.1029849e-02
  1.1239430e+00
  5.8607131e-01
 -9.7168602e-02
 -3.6943398e-02
  1.5523170e-01
 -4.8396990e-02
  9.5288321e-02
  5.7191186e-02
  2.2093318e-02
 -2.0653548e-02
 -2.7173750e-02
 -6.0299616e-02
 -2.0321263e-01
 -2.3261225e-02
 -1.0927671e+00
  3.7219074e-01
  2.1758507e-01
 -6.5205127e-01
  1.4784510e+00
  4.4863540e-01
  1.2419853e+00
  4.9919263e-02
  7.7827883e-01
 -2.8781153e-04
 -1.9882230e-01
 -3.0796808e-01
 -3.3212706e-01
 -4.6139467e-01
 -3.1246817e-01
 -5.2596456e-01
  9.1623783e-02
  1.6613218e-01
  2.2382019e-01
 -3.0650592e+00
  3.7908098e-01
  1.2509938e-01
  4.3814018e-02
  7.8358287e-03
  6.8327072e-03
 -1.0973158e-01
 -8.3331458e-02
 -7.8469312e-01
 -7.8133124e-01
  4.1711360e-02
 -7.9995729e-02
  6.1457079e-02
 -5.3412404e-02
  1.2249109e+00
  4.6650350e-02
 -7.3694155e-02
  3.5083964e-03
 -3.5016585e-02
 -2.7380177e-01
 -1.3660343e-01
 -2.0609187e-01
  1.7071645e+00
  5.4959465e-02
  6.6965885e-02
 -1.5758675e-01
  1.6653745e-01
  5.6423236e-02
  1.9133881e-01
 -9.3505122e-02
 -6.8528548e-02
  9.5290911e-01
  1.4211710e-01
  5.7194069e-02
  1.0260610e-01
  3.2288183e-02
 -8.6374544e-03
  5.9795715e-02
 -8.1603527e-01
 -3.5815440e-02
 -3.1286082e-03
 -8.1681550e-02
  3.8772044e-01
  1.9411722e-01
 -1.4081922e-02
  5.7542020e-01
 -6.4955789e-01
  1.4928639e-01
 -2.0689365e-02
 -5.4344840e-02
 -4.4300076e-01
  2.0303719e-02
  1.3142920e-01
  5.4335516e-02
  2.5155742e-02
 -3.2671334e-03
  6.7482308e-02
 -1.2757278e-02
  1.1816598e+00
 -1.3602616e-01
 -1.2132628e-01
  1.6201065e-01
 -4.0285654e-02
  1.1880812e-02
  3.4106195e-02
  2.9776496e-01
 -1.7350578e-01
 -5.6461025e-02
 -9.0001123e-03
 -1.6208950e-01
 -4.0967005e-01
 -2.2270611e-02
  3.9974231e-02
 -7.1718983e-02
 -3.4682015e-01
  4.3899584e-01
  1.0713363e-01
 -5.1655974e-02
  8.6260706e-02
  5.4464042e-01
  1.3517336e+00
 -9.2915669e-02
 -8.7886415e-02
 -3.4888849e-02
 -8.5510321e-02
 -6.4256139e-02
  7.3449374e-03
  9.4027653e-02
 -6.2420118e-01
 -7.0543498e-01
  5.7335007e-01
 -2.5017676e-01
 -1.9408029e-01
 -4.9835157e-01
  3.0236295e-01
  1.2894733e+00
  1.6922137e-01
  3.8606304e-01
  5.7944334e-01
  6.7366338e-01
 -7.3310250e-01
 -9.5381719e-01
  2.2553985e-01
 -1.4607617e-02
 -3.4613866e-01
 -1.8197992e+00
  2.4752836e-01
 -1.1859049e+00
  3.3466107e-01
  1.3170786e-01
  4.2770281e-02
  5.8587253e-01
 -2.2449277e-02
  2.1077464e+00
  2.9937685e-02
 -7.2663975e-01
 -5.8751494e-01
  1.3644019e-01
 -1.2587434e-01
 -5.2936006e-01
  9.5716703e-01
  9.8421896e-01
  7.3801219e-01
  1.2824780e-01
  1.0159482e-02
  5.1151067e-01
  8.6636871e-01
 -1.6443965e-01
  1.2594988e+00
 -4.1436839e-01
 -7.7900338e-01
 -6.0418385e-01
 -1.2953440e+00
  1.1138249e-01
  1.7283395e-01
  8.6830586e-02
  6.1283689e-02
 -1.0009698e+00
  1.6106081e-01
 -6.6972822e-01
 -7.3370397e-02
 -2.7923244e-01
  2.0226894e-01
 -1.4222708e-01
 -2.0606446e-01
  7.0436052e-03
 -3.7491682e-01
 -3.3615744e+00
 -4.6382569e-02
 -1.1229437e-02
 -4.0446380e-01
  8.1165649e-02
 -2.1894009e-01
  2.2909449e-02
 -4.5863956e-02
  9.9711297e-03
 -8.3765471e-01
  2.9791030e-01
  1.6447634e-01
  8.0868140e-02
 -3.4665346e-02
 -4.0951200e-02
 -2.6245585e-02
 -7.1725190e-02
 -2.0295981e-02
  9.4854996e-02
 -3.7247241e-02
 -1.4413524e-01
 -4.8620496e-02
 -9.1654003e-02
  2.4564238e-01
  1.9777928e-02
 -8.6741734e-01
 -8.7160558e-02
  1.9156794e-01
 -9.9439763e-02
 -6.3195273e-02
  5.8274977e-02
  7.6992020e-02
  4.5250986e-02
  2.1130358e-01
 -5.2106116e-02
  2.5827968e-01
  1.8732379e-01
  4.2801783e-03
 -7.5667754e-02
  1.5121770e-01
  9.5244296e-02
 -1.4389841e-01
  6.2542930e-02
  2.9499754e-02
 -1.1570990e-01
  1.2032779e-01
  1.2679189e-01
 -9.9102360e-01
  1.0856280e-01
 -7.7349178e-02
  1.5911154e-01
 -7.4203357e-02
 -2.6599097e-01
 -2.8483167e-01
 -2.9514331e-01
  2.6240867e-01
  3.8544945e-02
 -1.8996850e-01
 -3.7957716e-01
 -1.6364699e-02
  8.5115559e-02
  1.2490111e-01
  2.3386301e-01
 -1.3418542e-01
  4.5150664e-02
 -1.4040314e-01
  1.2350283e-01
  1.7660137e-01
  2.6423367e-02
  1.8903616e-01
 -5.3955615e-02
 -1.2606969e-01
 -3.5923745e-02
 -1.1284393e+00
 -2.1975816e-03
  5.3759508e-02
 -7.2629176e-02
 -1.2851826e-02
 -1.0369742e-01
  8.8342406e-02
  4.2105701e-02
  2.0781550e-01
 -8.3585359e-02
 -1.1377351e-02
 -3.4910040e-03
  7.3002130e-02
  8.7094456e-02
 -1.1930992e-01
  1.7471957e-01
  2.9768229e-01
 -8.7383138e-03
  5.5516463e-02
 -1.2019942e-01
 -1.4635990e-02
 -3.3495080e-02
 -4.8984122e-02
  3.4009911e-02
 -1.6415970e-02
  1.0278524e-01
 -2.7436070e-02
 -1.8172806e-02
 -9.3835294e-02
 -1.7146358e-01
 -6.5612979e-02
  9.8633635e-01
 -8.5810405e-01
 -3.7935534e-01
  1.6877896e-01
 -1.4789480e+00
 -3.4862545e-01
  8.3956164e-01
  1.3909519e+00
 -6.7857701e-01
  7.0090330e-01
 -4.8854733e-01
  1.3890201e-01
  7.5625789e-01
 -1.9257984e-01
 -8.2640409e-01
  1.7198030e-02
 -1.0364823e+00
  4.7422653e-01
 -1.6533011e+00
  4.0058035e-01
 -1.0564623e+00
 -2.5357687e+00
 -3.7896762e+00
 -2.8589320e-01
  2.8531330e+00
 -4.7023358e+00
  1.6299093e+00
  9.9669091e-02
  1.7375134e-01
 -3.4722929e+00
 -2.2738070e+00
  3.1460655e-01
  1.4458002e+00
  3.0508026e-01
 -1.7974676e+00
  1.5490719e+00
  1.5860502e+00
 -1.2947133e-01
 -2.2651729e-01
 -2.3436298e+00
 -3.9291983e+00
  1.0521553e-01
  1.0604738e+00
 -1.2960943e+00
 -2.4471109e+00
 -1.3452063e+00
 -9.3479365e-01
 -1.4203142e-01
 -4.9372789e-01
 -1.6729799e-01
 -3.0369195e-01
  1.5920849e+00
 -2.2075217e+00
 -1.8977517e-02
 -4.9672651e-01
  1.2000919e-01
  1.3638991e+00
 -1.2558730e-01
  9.3014836e-01
  9.2247587e-01
 -2.4198486e-01
  8.4739424e-02
  6.7460053e-02
 -5.6791939e-02
 -2.5555383e-02
  4.5472154e-01
 -6.3931847e-01
  9.9663931e-01
 -3.5982478e-01
 -3.4275889e-02
  3.6892501e-01
 -1.2791759e-01
  9.2175958e-04
  1.4807545e-01
  2.1720724e-02
  2.8936526e-01
 -1.6179752e-01
  6.2963408e-01
  5.8084011e-01
  6.6254824e-02
  8.8366590e-02
  6.3370109e-01
 -6.0798790e-02
  3.9262539e-01
 -3.5106108e-01
  1.6162325e-01
 -2.9061204e-01
 -4.9700272e-01
 -3.2847293e-02
  1.6916922e-01
 -2.0963423e-01
 -8.0852564e-03
  1.6465354e-01
 -9.3870908e-03
  2.7894899e-01
 -1.3595641e-01
  3.7396157e-01
  6.0856426e-03
  1.2110811e-01
  9.1353450e-03
 -1.9109535e-01
  4.4419141e-03
 -1.2641226e+00
 -3.0022481e-01
 -3.5904613e-01
  3.2472756e-02
  6.1166238e-02
  3.4551520e-02
 -8.0261966e-03
 -1.2685493e-01
  1.5574190e-01
 -6.7366689e-01
 -5.6947023e-02
 -2.8078461e-01
  1.9122119e-01
 -1.8565930e-01
  1.1396085e-02
  3.9861698e-02
 -3.7059043e-02
  1.3801570e-01
 -2.9263112e-01
  1.3597625e-01
 -2.3746242e-01
 -6.5987140e-02
 -1.4205012e+00
 -1.6199465e-01
 -8.8036090e-02
 -9.5277473e-02
 -7.7218615e-02
  9.2802155e-01
  7.6430753e-02
  2.1460976e-01
  2.5039081e-02
 -2.0495997e-01
  7.6181076e-02
  2.6224536e-01
  7.8218289e-02
 -8.4645569e-02
  6.2961668e-02
 -1.4760703e-03
  4.9569580e-01
 -4.8117548e-02
 -4.1804691e-03
 -6.5366584e-01
 -4.7514597e-01
  5.8613978e-02
  9.2114285e-02
 -8.6538255e-02
  3.7709964e-03
 -1.8505421e+00
 -3.3018578e-02
 -1.2568711e-01
 -5.4247133e-03
 -8.8326029e-02
 -4.3578323e-02
 -1.1151268e-01
 -3.4938324e-02
 -5.4947156e-02
 -7.5322017e-02
  1.2076861e-02
  1.1292702e+00
  1.0771143e-01
 -1.4004162e-01
 -1.3092689e-02
  2.6473057e-01
 -1.1796011e+00
 -1.2654492e-01
 -6.7655355e-01
 -6.9850761e-01
 -5.6252390e-01
  2.7435425e-01
 -2.2468993e-01
 -1.2454059e-01
  2.2293258e-01
 -1.3099105e+00
 -7.3568100e-01
 -3.0033880e-01
 -9.0215825e-02
 -2.3283473e-01
 -2.1421701e-01
 -3.6600533e-01
 -4.0508932e-01
 -2.0029573e-01
  2.1705927e-01
  1.0324005e-01
  1.0294820e-01
  2.4833879e-01
 -2.5494978e-01
  9.2977896e-02
  3.4748469e-02
 -1.2449622e-01
 -1.3020894e-01
 -4.6506152e-01
  1.0374837e-01
 -1.1542467e+00
  7.9487920e-02
 -6.8918265e-02
 -1.7381915e-01
 -2.5401690e+00
  8.3194107e-02
 -1.6678829e-02
 -4.6593633e-01
 -1.7561065e-01
  1.0647631e-01
  2.3994485e-02
 -1.0608876e-02
 -5.9370846e-02
 -2.6348110e-02
  5.6147210e-02
  4.7868580e-01
  4.9345583e-02
  1.4047541e-01
  2.6175350e-02
  5.8387987e-02
 -3.6730230e-01
 -1.4014617e-01
  4.4505593e-01
  7.9931252e-02
 -3.1582883e-01
 -4.3894248e-03
  6.0363721e-02
  3.4301445e-01
 -2.6182446e-01
 -2.9042184e-01
 -1.4654276e-01
 -2.0044221e-02
 -1.3580786e-03
  2.0478275e-01
  7.0533819e-02
  1.1268964e-01
  4.2533252e-02
 -3.7940565e-02
 -1.9622344e-01
  1.0329740e-01
  1.7823347e+00
 -6.0961578e-02
  4.8994478e-02
 -1.1255137e-01
 -3.2057545e-01
  9.0030253e-02
  1.6773237e-01
 -1.7762455e-01
  8.9756511e-03
 -2.7620075e-02
 -5.5082109e-02
  3.3764258e-02
 -2.4665530e-01
  3.7563741e-02
 -8.1455588e-02
  3.1001416e-01
  5.7899910e-03
 -1.0880269e-01
  4.2508137e-03
  4.5802888e-02
 -8.5505024e-02
  1.2943487e-01
  6.1833657e-02
 -2.1647656e-01
 -5.9549324e-02
  8.9985751e-02
 -7.7429838e-02
 -2.4228978e-01
  6.6875929e-01
  5.8962595e-02
  6.9265582e-02
  9.8457091e-02
  8.0553746e-01
 -6.5912575e-02
 -6.3934992e-03
  6.8649009e-02
 -1.2202734e-03
  6.6128209e-02
 -3.6737897e-02
  4.2764689e-03
 -2.7768260e-01
 -3.7969474e-02
 -8.5176297e-02
 -6.8379948e-03
  1.5797243e-01
 -2.2693714e-01
  2.0745027e-01
 -3.2379392e-01
  1.1943076e-01
 -1.2302348e-01
 -4.0546503e-02
 -1.5225053e-01
  1.2750609e-01
  4.5976967e-01
  1.4422058e-01
  1.0210010e-01
 -1.4735587e-02
  2.0834401e-02
  1.3764329e-01
 -1.9130103e-02
 -8.2185023e-02
 -9.6729212e-03
  6.3073955e-02
 -4.1503873e-02
  1.6190235e-03
  7.7765130e-02
 -2.6071319e-02
 -1.4367269e-01
  5.8333028e-02
 -6.4489037e-02
 -4.9327224e-02
 -1.0654444e-01
  1.9389272e-01
 -2.2329187e-02
 -6.6847607e-02
 -2.3141046e-01
 -3.6017276e-02
 -1.2152304e-01
  5.2963831e-02
  2.8499048e-02
  2.2889938e-02
  5.7195437e-01
 -8.6715773e-02
 -3.6540660e-01
  1.2108137e-02
  2.3649348e-01
  8.9710101e-02
  7.6850340e-02
 -7.2485305e-02
 -2.5422754e-02
 -1.2827444e-01
  1.4747714e-01
 -1.9147966e-02
  7.6005584e-01
  2.4549226e-01
  8.4127516e-02
 -9.5166788e-03
 -2.1952491e-02
 -1.8980016e-01
  1.0990316e-01
  1.5708318e-02
 -7.8271270e-02
  2.6026422e-01
  2.1654363e-01
  9.2330948e-02
  2.6361158e-01
  3.9856579e-02
  3.4023911e-01
 -2.6325217e-01
 -6.3863322e-02
 -3.0377287e-02
 -1.0141719e-01
 -1.0453375e-01
  2.1572067e-01
  3.1314597e-02
 -8.5057942e-03
 -1.3133922e-01
  8.6305000e-02
  1.7203243e-01
  3.5500605e-02
 -1.1950526e-01
 -2.1789279e-02
 -5.5897821e-02
 -1.0989495e-01
  1.5821534e-01
 -6.2748283e-02
  1.2538196e-02
 -1.7009094e-01
 -5.6530844e-02
  7.2883284e-03
  2.9265773e-01
 -3.7504006e-02
 -1.9553917e-02
 -1.1497421e-02
 -5.7806972e-02
  4.2115676e-01
 -1.1253516e-01
  3.6509240e-01
  2.2819546e-01
 -2.0230744e-02
 -7.7211335e-03
  4.9351875e-02
 -2.6928095e-02
  1.2916829e-01
  3.5329227e+00
  1.9591258e-01
 -5.0550270e-01
  1.9305798e-01
 -5.0784439e-01
  1.1020265e+00
 -2.1423279e-01
 -3.1240892e-01
 -1.1435791e+00
 -1.4841908e-01
 -3.4568819e-01
  4.3393272e-01
 -1.9985662e-01
 -2.1707864e+00
 -4.2333272e-01
 -2.4307013e-01
  3.9302430e-01
  1.9316959e-01
 -2.8206769e-01
 -7.5541802e-02
 -1.0636527e-01
 -7.9240985e-03
 -5.4802429e-02
 -5.4259259e-01
  1.9866630e-01
 -2.9625273e-01
 -3.4409050e-02
 -8.4884763e-01
 -1.2634662e-01
  6.3200586e-02
 -3.3752427e-02
 -2.9654304e-02
 -3.9826035e-01
 -2.4996783e-01
 -1.9882183e+00
 -4.6864215e-02
 -2.7228829e-01
  3.0839312e-04
  2.8314763e-01
  2.4875253e-02
  1.3225216e-01
 -2.8551197e-01
 -5.1825814e-02
 -1.9326141e-01
 -1.4663061e-01
  5.5908635e-02
  7.3721506e-02
  1.0746884e-01
  3.7144877e-02
  1.2841912e-01
 -4.4294247e-01
  9.1504112e-02
 -7.4721299e-02
  9.3580596e-02
 -1.5765893e-01
 -4.2335317e-01
 -3.9001453e-01
  1.0551872e+00
  3.1533292e-03
 -3.4677744e-02
 -8.2313818e-01
  2.4852989e-04
 -6.7579138e-01
  3.5600114e-01
 -7.0034343e-01
  1.9731737e+00
  1.0179007e+00
  1.5905200e+00
  1.5320810e-02
 -1.4419053e-01
  8.4738068e-02
 -1.6517481e-01
 -8.1932195e-02
  1.5034245e-01
  7.7100843e-02
 -1.0676814e-01
 -1.6256480e-02
 -6.9088084e-01
 -1.4517963e+00
  9.5832027e-02
  1.9061834e-01
 -5.5278224e-01
 -8.3336525e-02
  2.5358480e-01
  2.2468260e-01
  7.0979810e-01
 -5.6197608e-01
 -5.7472587e-01
  3.5905607e-02
  4.3120208e-01
  3.0058250e-01
  3.3409558e-03
 -1.6731765e-03
 -1.9841649e-01
  1.8837148e-02
 -1.3190172e+00
  1.2120574e-01
  3.7109282e-02
 -3.8386109e-01
  1.6944586e-01
 -1.9965738e-02
  1.0333738e-04
 -1.5743324e+00
  1.9121125e-01
  2.7512720e-01
 -8.6386621e-02
 -1.1225228e+00
 -2.9588366e-02
  5.7516865e-02
 -1.5664279e-01
  4.3381914e-02
 -3.0824281e-03
  2.8489462e-01
  2.2781664e-01
 -7.6804040e-03
  4.6074012e-01
 -1.0316961e+00
  1.6024682e-01
  6.2985674e-02
  2.0169677e-02
  4.3315150e-02
  3.8739815e-03
 -5.4837245e-02
 -6.3841313e-01
  5.3405002e-02
  5.6622054e-02
  2.3872681e-01
  5.2225139e-02
 -7.3079383e-01
  8.3846748e-03
 -9.1229871e-02
  1.4746489e-01
  1.1128708e-01
 -2.8584880e-01
 -9.7137280e-03
 -6.6517547e-02
 -3.3696449e-01
 -5.4343875e-02
 -7.1468465e-02
 -3.6674231e-02
  2.6293510e-01
 -9.5386170e-02
  5.5856949e-01
  2.1125303e-01
 -2.3762190e-01
 -2.9230447e-02
 -4.3378957e-02
  1.5195942e-01
 -2.1442708e-01
 -5.7338987e-02
 -2.5279069e-02
 -4.4063069e-02
  5.4278430e-02
  1.1283808e+00
  1.5852062e-01
  4.1868772e-02
  3.1697571e-02
 -7.2165662e-03
 -6.9627076e-02
 -5.5982225e-02
 -2.6397485e-01
 -7.7339159e-03
 -1.1646929e-01
 -1.5486328e-01
 -1.1394178e-03
  2.3926926e-01
  1.2441307e-01
 -1.0421853e-01
 -3.1300548e-01
 -1.0205908e-01
 -7.7735960e-02
 -1.0597380e-01
 -7.2065353e-02
  1.5046875e-01
  3.0465761e-02
  4.9585100e-02
  9.4068758e-02
 -5.4738145e-02
  4.0767010e-02
  5.5539336e-02
 -1.4297640e-02
  7.8731686e-02
 -9.8490886e-02
  1.6130988e-01
 -9.5322609e-02
 -1.3247800e-01
  4.4667002e-02
 -3.0761363e-02
  4.5281777e-01
 -1.8938759e-02
  1.9170214e-01
  1.2982477e-03
  1.3873568e-02
 -8.0907747e-02
 -1.4226915e-01
 -1.3803050e-02
  1.7209951e-02
 -6.4508400e+00
  2.2583295e-02
 -1.5072943e-02
 -1.3689597e-02
  1.3569772e-01
  9.8109685e-02
 -2.6724491e-02
  1.7337078e-01
 -8.5062429e-02
 -3.0285927e-02
  1.7671335e-02
 -6.6517673e-02
  7.8512274e-02
 -9.1473573e-01
  4.3950904e-02
  2.3590007e-01
  8.5143559e-02
  1.4427420e-01
  8.3920866e-02
  2.3168153e-01
  3.1208136e+00
  1.7148886e+00
  8.0984509e-01
  1.1163977e+00
  3.7972984e-01
  4.4971746e-01
 -1.5932914e+00
 -1.8521644e+00
 -3.2256987e-02
  1.1110786e+00
 -1.1394768e+00
  3.7764803e-01
 -1.3226855e+00
  2.3522580e-01
 -7.4092127e-02
  1.2313709e+00
 -1.3595001e-01
 -1.3519111e-01
 -4.5729671e-02
 -8.2481556e-02
 -1.8738294e-01
 -6.1565932e-02
 -1.3277318e+00
  2.1682558e+00
 -7.5387508e-01
 -1.4617405e-02
 -6.7261510e-02
  3.8289845e-02
  3.0916509e-01
  1.0947671e+00
  3.5799108e-02
 -1.5403653e+00
 -3.2794785e-01
  8.4927928e-01
  6.3643265e-01
 -1.9591330e-01
  4.7544342e-02
 -3.7432622e-02
 -4.9603653e-01
 -2.9706967e-01
 -2.3173609e+00
 -5.9959757e-01
 -4.8582792e-01
 -1.5813300e-01
  1.0645784e-01
 -3.8124565e-02
 -2.2232002e-01
  1.0273642e-01
 -1.2376325e+00
  9.6353149e-01
 -1.9070882e+00
 -1.1370506e-01
 -6.6769026e-02
 -2.7594826e-01
  3.3128966e-02
  4.3300375e-02
 -5.0277257e-01
  7.5153969e-02
  1.8977490e-01
 -3.1751264e-02
 -7.1610391e-02
  3.8717218e-02
  3.8393640e-03
 -2.8864462e-03
 -2.4154006e-02
 -2.4161296e-01
 -4.2557546e-01
 -3.4699818e-01
 -7.5115010e-02
 -1.2379372e-01
  1.2629837e-01
 -4.3664776e-02
 -4.2782703e-01
 -1.1457714e-01
  4.7199863e-01
 -1.3819454e-02
  3.9170015e-01
 -3.9672080e-01
 -2.7981266e-01
 -3.0114701e-01
  3.8609322e-02
  1.3451165e-01
 -8.4844902e-02
  4.1819658e-02
  5.0131641e-02
  1.9326618e-01
  1.7594254e+00
 -2.6753768e-02
 -1.0013847e-02
 -4.5697439e-02
  3.0587965e-01
  9.5752023e-02
  3.1797048e-02
  1.9590080e-02
  4.4882227e-02
  5.7968599e-01
  8.0798184e-03
 -2.2227956e-01
 -3.9485749e-02
 -9.1374956e-02
 -5.8305818e-01
  6.6859953e-02
 -2.0927345e-02
 -9.0312101e-02
 -2.5745213e-02
  1.3226737e-01
  9.4028942e-02
 -4.8372779e-02
 -1.9710448e-02
  1.4984648e+00
  1.5403210e-01
  3.6547109e-02
 -1.1322645e-02
 -4.5533832e-02
 -1.7128047e-02
 -9.3099400e-02
  1.4647300e-02
  9.2483439e-02
  2.1453831e-01
  1.2200301e-01
 -6.9422834e-02
 -2.8738080e-02
  2.6301196e-01
  1.1797061e-02
 -4.8509005e-01
  9.3601681e-02
  5.5063382e-02
  2.5684901e-02
  1.6748672e-02
  3.2172207e-02
  5.5812541e-02
  1.6320715e-02
 -4.3452889e-02
 -4.4876881e-02
 -6.8031423e-02
  4.1191792e-03
 -2.8363070e-03
  6.8704352e-02
 -3.4156088e-02
 -6.6345565e-02
 -3.1475253e-02
  1.0731619e-01
 -4.2876923e-01
  6.1552636e-02
 -4.7157302e-02
  4.5455165e-02
  2.8274970e-03
 -3.5808154e-03
 -2.0281417e-02
  1.8234792e-01
 -1.2062320e-02
 -1.1707842e-01
 -8.7403553e-03
  1.6429307e-02
  1.7282084e-01
  7.8913555e-02
 -3.9647914e-02
 -6.0366035e-02
  2.5017324e-01
 -4.5795824e-02
 -4.7277611e-02
 -1.5600312e-01
 -8.8139744e-03
 -5.8120024e-01
  9.0478219e-02
  3.4778036e-02
 -2.9989171e-01
  3.1840032e-01
 -2.0859035e-02
 -4.8511907e-02
  3.4021683e-02
 -3.1232599e-02
 -1.2732475e-01
  1.2286378e+00
 -5.1921117e-01
 -4.6942029e-02
  4.1208930e-02
  3.8982737e-01
 -2.4502188e-01
  1.2970118e-01
 -7.3927820e-02
  3.0625334e-01
 -6.5492727e-02
 -4.0362912e-01
 -1.5277933e-02
  4.2268914e-01
  2.5471419e-01
 -6.9264024e-02
  2.2549339e-01
  4.9667135e-01
 -2.2087355e-01
 -5.7467777e-02
  1.1256555e-01
  2.6721972e-01
 -8.1964113e-02
 -1.8555324e-01
 -1.1926224e-01
 -8.1873611e-02
 -7.3497623e-02
  1.1104267e+00
 -8.4677227e-02
  4.4101402e-02
  5.4472629e-02
  1.1758312e+00
 -1.5027042e-01
  4.8365253e-01
  6.2401872e-02
  4.8511226e-02
  4.8979685e-02
 -7.1381733e-02
 -1.1021291e-01
 -3.4276191e-02
  3.8424708e-02
 -2.6025169e-02
  6.7671582e-02
 -1.1815070e-01
 -1.8919596e-01
 -8.0596888e-01
  3.9945215e-01
 -2.6883134e-01
  1.0264254e-01
 -4.6026799e-01
  9.5077223e-01
  2.5610173e-01
 -1.8040238e-02
  3.4379786e-01
  1.2737837e-01
  5.5028951e-01
 -8.7739415e-02
  4.5104167e-01
  3.1882635e-01
  7.4082321e-01
 -3.9059442e-02
 -2.7973458e-02
  3.5433289e-01
 -5.9513558e-02
  6.5842375e-02
 -1.9994704e-02
 -5.7555567e-02
  1.8667504e-01
 -2.6192708e-02
 -9.6326143e-02
  6.1915834e-03
 -1.0757504e-01
  1.1774317e+00
  1.2724245e-01
  2.1322428e-01
  5.7371205e-01
  4.0018982e-01
 -6.7870671e-01
  7.9574987e-02
 -9.3327120e-02
 -5.0020222e-02
  3.6114277e-04
  2.5895765e-02
 -2.9613879e-02
 -2.3202395e-01
 -7.5909764e-02
  3.0472499e-01
 -6.2516950e-02
  9.5118694e-02
 -3.2143334e-01
 -1.1134455e-02
 -2.8247124e-01
  2.5484895e-02
 -7.9851169e-03
  3.2152373e-02
  7.1861207e-02
 -9.4404407e-03
 -1.5347903e-02
 -1.2634628e-02
 -6.2060851e-01
 -1.9686397e-02
 -1.0286711e-01
 -3.0723767e-02
  7.6941594e-02
  3.2598540e-02
 -4.7678894e-01
  7.4132532e-02
 -3.6772266e-02
 -9.9806361e-02
  1.8195146e-01
 -5.5260818e-02
  1.1709286e-01
  5.1749833e-02
  8.1845820e-02
  2.6279318e-01
 -2.9014962e-02
  7.6809123e-02
 -8.2856722e-02
 -1.8021915e-02
 -9.2174485e-02
 -1.9728862e-01
  1.1898099e-01
 -8.8052675e-02
  7.2155995e-03
  3.6913201e-02
  3.6289081e-02
  6.1788756e-02
 -8.6429594e-03
 -6.5768026e-02
 -1.8815047e-01
 -1.7426294e-01
 -1.5985632e-01
  1.2209044e-02
  2.2938658e-02
  7.0496365e-02
  9.7858942e-01
  3.0645439e-02
  6.0513206e-02
 -1.4329404e-01
  1.0970379e-01
  1.3484052e-01
  7.1550936e-01
 -3.1687587e-02
  6.6968918e-02
  3.0661127e-01
 -2.2928635e-02
 -4.1887425e-02
  2.4643209e-02
 -3.6211047e-02
 -1.4168182e-01
  4.6462384e-03
  1.5471274e-02
 -4.9555805e-03
 -8.7168771e-01
 -2.3632883e-01
  5.9563540e-02
 -5.8518504e-03
  3.5514882e-01
  1.1846608e-01
  8.0949187e-02
 -5.7617661e-02
 -7.3324159e-02
  6.0994167e-02
 -6.7715310e-02
  2.0724428e-01
 -1.7040128e+00
 -8.5524607e-01
 -1.3277086e+00
 -3.7706327e-01
 -8.8636309e-02
  6.0124326e-01
  1.3979303e+00
  1.1496233e-01
  8.9462027e-02
  5.6364673e-01
 -1.1899846e-01
  2.3041610e-01
 -1.4780973e-01
 -1.4050314e-02
  2.0583354e-01
  6.7526080e-02
  2.6373547e-01
  6.8764681e-01
 -3.1957708e-02
  4.4862443e-01
 -6.2833792e-01
  6.6696173e-01
 -1.4793836e-01
 -1.2989239e+00
 -2.5277480e-02
  2.1539559e-03
 -3.3688524e-01
 -2.1325156e-01
  3.0654574e-02
 -8.9757942e-02
 -1.0445290e+00
 -1.0654992e-01
  1.1247810e-01
 -2.5585359e-01
  5.4766470e-01
 -7.5113118e-02
  1.1805934e-01
 -2.2081603e-01
  7.9359494e-02
  8.6840130e-02
  9.6104676e-03
  6.4479825e-03
  8.7575549e-01
  2.9544035e-01
 -6.5143213e-02
  4.8623088e-01
  1.2809497e-01
 -1.8134840e+00
 -7.5426720e-02
  6.6211104e-02
  9.8425448e-01
 -1.2504779e+00
 -1.4621808e-01
 -8.7884796e-01
  2.7006416e-02
 -4.8401287e-01
 -1.1654512e-01
  1.1085998e-01
 -1.1800399e-02
  9.8993346e-02
  6.7931563e-02
 -5.9691030e-01
 -6.0312498e-01
  8.1250686e-03
 -2.0342709e-02
  2.1810330e-01
  1.2326833e+00
  4.6127930e-02
 -7.4991621e-02
 -5.6855053e-01
 -1.3304520e-01
 -1.4680271e-02
  3.5677862e-01
  4.6975935e-01
 -1.0926819e-03
 -6.9156617e-02
  1.9133785e+00
  3.3490497e-01
  1.3536991e-01
 -2.0417848e-03
 -1.5927610e-01
 -6.3177459e-02
 -1.8901581e-01
  2.1186749e-02
  3.3626672e-02
 -3.9557377e-03
  1.5451652e-01
  1.7111386e-01
  2.1789856e+00
 -2.2416990e+00
  2.3156705e-01
 -1.8368310e-01
 -6.3850462e-02
 -1.4453428e-02
  1.6445075e-01
 -3.4313707e-03
 -5.1742300e-02
 -2.3385678e-01
  8.7116577e-02
  5.4971678e-03
  1.0463526e-01
 -2.1470840e+00
  1.0167453e-01
  1.0250328e-02
  2.7261745e-02
  6.1310165e-02
 -1.8098930e-01
  1.9522933e-02
 -1.1575070e-01
  7.9566553e-02
 -7.5778425e-02
  1.1092921e-01
 -8.4537424e-02
 -1.4054267e-01
 -4.7668383e-02
 -2.1529083e-01
 -1.1167788e-02
 -3.5888646e-02
  1.3760203e-02
  3.0803604e-02
  1.8071409e-01
  1.1419455e-01
 -1.6970342e-01
  1.8904102e-01
  1.5346451e-01
  1.8824685e-02
  6.7596294e-02
  5.8653620e-03
  3.6560223e-02
 -5.9051596e-02
 -3.4713361e-02
  2.6541677e-01
  3.8400024e-02
 -2.4654813e-02
 -9.0838902e-02
  1.0659891e-01
 -6.4139456e-02
 -6.0990240e-02
 -1.2532733e-01
  5.7548141e-01
  4.6998471e-01
 -3.1169561e-01
  1.3841839e-01
  6.9807302e-03
 -4.2338240e-01
  2.0891899e-01
  1.3826488e-01
 -1.7995727e-01
 -2.4517117e-02
 -1.2430701e-01
 -1.2520464e-01
  2.5301328e-01
  1.8372223e-01
  2.3307338e-01
  7.4794851e-02
  2.7457154e-01
 -2.4098458e-02
  4.7261138e-03
 -1.4325175e+00
 -7.5107075e-02
 -4.4930093e-02
 -4.0396795e-01
  1.1964668e-01
 -1.6306475e-02
  2.2878971e-02
 -8.2588464e-02
  7.0904568e-03
  1.2173692e-01
  6.3825599e-03
  3.9677817e-02
 -1.6683191e-01
  1.6483516e-02
 -1.1292584e-01
  1.9400734e-03
  1.2219332e-03
  2.0511501e-01
 -2.0587075e-01
  1.2847616e-01
 -5.1022157e-02
  3.4754824e-02
  1.8047135e-01
  6.9934167e-02
  1.0435609e-01
 -1.9664746e-02
  7.4113607e-02
 -4.8565543e-03
  3.6921538e-02
  1.1700300e-02
 -3.7619669e-02
  2.1582530e-01
  5.8643850e-03
 -3.9149097e-01
  3.9625730e-02
 -4.0557753e-02
  8.0592513e-02
 -1.9193368e-01
  1.0002928e+00
  7.8076436e-03
 -6.7632937e-01
  5.4087329e-01
 -1.2291084e-01
  5.5813605e-01
  5.4873087e-02
  4.4021627e-01
  1.6605513e-02
  1.7384806e-01
  2.0911578e-02
  1.5090027e-01
  7.7776425e-04
  2.9080389e-02
 -1.1931427e-01
 -5.4334946e-02
  1.4923286e-02
 -1.7265227e-01
 -9.0712272e-03
  1.1281996e+00
  3.0958347e-02
 -1.4666565e-02
  5.0465170e-02
 -3.4048352e-02
  2.9657942e-01
 -1.7866074e-01
 -8.5570559e-02
  1.7037950e-01
 -1.0553057e-01
  1.6715469e+00
 -2.1822169e-01
  1.0782790e-01
 -6.2117015e-04
 -3.1886652e-02
 -4.6764319e-03
  1.5733410e-02
 -2.1943180e-03
  2.1588203e-01
  5.2194424e-02
  3.6811879e-01
  2.6685152e-02
 -6.9611698e-02
  6.8120882e-02
  6.7195401e-02
  1.5314551e-01
 -3.6952517e+00
  2.9701656e-01
  3.0414796e-01
  3.8658801e-02
  9.2945844e-02
  1.2866211e-01
  2.2038685e-03
 -2.9986455e+00
 -5.2141625e-01
 -1.6974567e+00
  5.0715476e-01
 -1.2098191e+00
  6.8871766e-02
  5.5108368e-01
 -4.4996080e-01
  5.2504581e-01
  1.0328180e+00
  4.2451255e-02
 -1.2768316e-01
  7.8124732e-01
 -1.0525499e-01
 -1.4634043e-01
  1.4972717e-03
 -1.0095018e+00
  1.1385974e-01
 -2.2885349e-01
 -4.6011508e-01
  6.6309139e-02
  7.8644231e-02
 -2.0381746e-01
 -3.4113377e-02
 -7.4510984e-02
 -5.9994388e-02
  1.1333166e-01
 -8.0779895e-02
 -4.9457862e-03
 -2.9038388e-01
 -1.9916616e-02
 -1.0765141e+00
  1.6819671e+00
 -4.9440034e-02
 -1.6893303e+00
  6.8258055e-02
 -1.1566970e+00
  1.8197943e-02
  2.2251810e-01
 -4.3810554e-02
  5.2263029e-02
  1.3161528e+00
 -4.6514010e-01
 -1.3894363e-02
  3.7514763e-03
 -5.1246756e-01
  7.3892765e-02
  2.2681677e-01
 -1.4663941e+00
 -5.3955562e-02
 -6.5035707e-01
  1.0493461e-01
  9.9088121e-03
 -5.1896089e-01
 -1.3305001e+00
 -2.3799944e-01
 -1.9368809e+00
  1.4584742e+00
  5.5877203e-01
  1.0022305e+00
 -7.0880055e-01
  1.6317919e+00
 -2.2830729e+00
  1.6230069e-01
 -2.7168301e-01
  4.8613557e-01
 -5.0051656e-02
 -2.7192673e-01
  6.7049548e-02
  1.3609704e+00
 -4.2976555e-01
  5.3612041e-01
  9.6592613e-02
 -2.4277592e-02
  1.1994161e-01
  2.3569457e-01
 -3.7214486e-03
 -7.4340492e-02
  4.8800178e-02
 -3.8340122e-01
  2.2209157e-01
  5.7571936e-01
  3.0669209e-01
  1.6051540e-01
  3.0751345e-01
  2.7846405e-01
  2.9616484e-01
 -2.4960770e-01
 -5.5596834e-01
  6.6267723e-01
  2.0948775e-01
 -2.6878804e-01
 -3.1066082e-02
 -6.0108024e-01
 -3.2996192e+00
  6.7393489e-02
 -5.0651585e-03
 -1.5052460e-01
  1.1953931e-01
 -7.9151876e-03
 -2.5483383e-02
  5.8013541e-01
  3.7006190e-01
 -1.1872984e-01
  9.9624664e-02
 -8.0225626e-03
 -4.2318560e-02
 -5.2785832e-02
 -2.0611100e-01
  5.3267604e-01
 -5.5053556e-01
 -4.0236328e-02
  1.2796152e-02
  2.2401220e-01
  1.3633361e-01
  1.7372788e-01
 -6.8860121e-02
 -3.1725831e+00
  6.5649226e-03
  6.8590887e-02
 -3.7549060e-02
  5.0880540e-02
  7.4643751e-05
  5.1502034e-02
  1.4639136e-01
 -4.7766110e-03
  8.2700769e-04
  7.5399376e-02
 -1.1233178e-01
 -6.4861603e-02
 -2.3768051e-01
  1.2572764e-01
  1.8297513e-01
 -2.3561882e-02
 -3.1930722e-02
 -1.1245704e-01
 -1.9844352e-01
 -2.3946242e-02
  9.5724779e-01
 -1.4747429e-01
 -8.0251068e-02
 -9.4549321e-02
  1.5354009e-01
  4.8808571e-02
  6.5686242e-03
  7.5753825e-03
 -1.8079182e-02
  6.3084505e-02
  4.9925581e-01
 -1.8917510e-02
 -1.2576930e-01
  1.8532537e-02
  1.4496313e-01
  4.5690097e-02
 -6.7160636e-01
 -5.0373659e-02
 -1.1493617e-01
 -1.6563798e+00
  2.2603329e-02
 -1.5578417e-02
  9.4396070e-02
 -3.3212820e-01
  1.5979062e+00
 -5.4274446e-01
 -1.0785096e-01
 -3.4336299e-02
  2.3696470e+00
  2.0595174e+00
 -4.1463360e-01
 -2.3601875e-01
 -4.1892949e-01
 -6.7949063e-01
 -4.2842624e-01
  1.3929232e+00
  3.8624361e-01
 -5.0857864e-02
 -7.2051883e-01
 -2.7692711e-02
  6.8688333e-01
 -6.1505578e-02
  2.6983824e-01
 -5.5605929e-02
  2.4711236e-01
 -5.5153972e-01
 -3.8952827e-01
  1.3827343e-01
 -1.0765155e-02
 -3.1130052e-01
  1.8551989e-02
  3.6274973e-02
 -2.0040937e-01
  4.2717956e-02
 -5.2528912e-01
  5.7755917e-01
 -4.8016572e-01
 -3.9898765e-01
 -3.6901879e-01
 -3.9961543e-02
  6.3988008e-02
  1.5910465e-01
 -1.1839606e-01
 -2.2333819e-01
  4.9277425e-02
  1.7317854e-01
  1.0192176e-01
 -3.1897042e-02
 -7.2416335e-02
  1.2791234e-01
  9.9239305e-02
  9.9408649e-02
 -3.1530464e-01
  7.4439667e-02
 -1.1033579e-01
 -6.8624526e-02
 -6.7752592e-02
  9.8464228e-02
  6.0276484e-01
  8.5499489e-01
  4.0358272e-01
 -9.6219428e-02
  1.2609567e-01
  1.0272971e+00
 -1.4229066e+00
 -1.1288189e+00
  5.7057017e-01
  5.9878582e-01
 -2.8040218e-05
  5.5593753e-01
 -4.9702910e-01
 -5.6854975e-01
  3.8263756e-01
  2.3158913e-02
 -5.7084894e-01
 -1.1673068e-01
  1.4439777e-01
 -1.4410135e-01
 -3.2466371e-03
 -1.5612149e-01
  1.6050103e-01
 -1.4201373e-01
 -6.6517101e-04
  2.5124711e-01
 -8.3207019e-02
  1.4046086e-01
  1.2807045e-02
  8.3035558e-02
 -6.8621397e-02
  1.2185847e-01
 -4.3960560e-02
  1.5670091e-01
  1.6518585e-02
 -1.5080833e-01
  2.2236770e-02
 -2.1493154e-02
  6.8321243e-02
  3.5063710e-02
  3.8862526e-01
 -8.3276141e-01
  1.4799385e-01
  1.4375277e-01
  1.0451768e-01
  1.5395060e-02
 -7.1315384e-03
  1.1447606e-01
 -7.8403890e-02
 -8.5072383e-02
  7.2007167e-01
  8.0540225e-02
  6.1762385e-02
 -8.4003704e-03
  4.2927843e-01
 -3.8375875e-01
 -6.2780172e-02
 -1.2577890e-01
 -4.1814876e-01
  8.6403325e-02
 -7.9203285e-02
 -5.8153272e-01
 -1.6137022e-01
  5.1247418e-02
 -7.9057932e-02
  1.9084360e-01
 -4.0843603e-01
  2.7281508e-01
 -2.6418222e-03
  1.3686450e-01
  4.7544724e-01
  3.4622043e-02
  3.9839342e-02
  3.6113638e-02
 -5.0860915e-02
 -1.3091876e-01
  9.5229322e-04
  4.6059374e-02
 -1.8113632e+00
 -1.3774727e-01
  1.1445481e-01
  1.1248986e-01
 -1.8309905e-04
 -1.4500296e-01
 -3.1714931e-01
 -5.1197361e-02
 -8.4526412e-02
  4.9921881e-02
  4.2420324e-02
  2.0351700e-01
 -1.7024523e-01
  3.0263141e-01
 -5.9761241e-02
 -2.3896126e-01
 -9.7399101e-02
  3.5042845e-02
 -1.9579877e-03
  1.7746085e-02
  7.4981123e-02
  6.6810742e-02
  1.7269867e-02
  4.0747494e-02
  5.0326940e-03
  2.6643755e-02
 -7.3147714e-02
 -7.0090055e-02
  4.4642553e-02
 -1.7181025e-01
 -7.0660800e-02
 -3.9177783e-02
 -1.3409823e+00
  1.1227595e-01
  3.0525482e-01
  2.7525747e-02
  1.3986006e-01
  1.6436566e-01
 -1.8654755e-01
  2.9626071e+00
 -5.6427967e-02
  2.0063733e-01
 -1.0468727e-01
  5.7981908e-03
  2.6875718e-02
 -1.2952036e-01
 -1.6519535e-01
  7.8931338e-01
  5.5944376e-02
 -1.7451409e-02
  1.2193555e-01
 -5.0600149e-02
 -3.2149369e-01
 -2.0034738e-02
  2.8963101e-01
 -9.4799340e-02
 -1.0294074e-03
  1.0992470e-01
 -6.4389147e-02
 -1.7972873e-01
 -1.0763036e-01
 -5.2426036e-02
  2.5952298e-02
  5.1046174e-02
  5.9628349e-02
 -3.0774611e-01
 -2.4195084e-02
 -6.9804043e-02
 -1.3277821e-01
  1.1919651e+00
  2.9945892e-01
 -1.1978689e+00
 -8.7685473e-02
  5.4395594e-02
 -5.2719798e-02
 -1.3056514e-02
  2.4229017e-01
 -3.8253319e-02
 -4.0175515e-01
 -2.8070906e-02
 -2.0121092e-01
 -4.0533841e-01
 -1.5398104e-01
  1.1190738e-01
 -6.1767932e-02
  2.0832369e+00
  5.0013229e-02
 -3.7218455e-02
 -8.9787287e-01
 -2.1508757e-02
 -1.6960377e-01
 -3.8398858e-02
 -1.4368829e-01
 -1.7565992e-01
  3.1484559e-02
  5.7147849e-02
  5.0227952e-01
  8.7681077e-03
 -2.0911176e-02
  7.8587808e-02
 -5.3922214e-02
 -3.4966175e-02
 -1.0963096e-01
  5.2853771e-02
 -1.5042126e-02
 -2.9815840e-02
  9.4981834e-02
  1.1728057e-01
 -7.9259560e-02
  4.8081134e-02
  2.1647550e-01
  7.7271340e-03
 -6.7828349e-03
  1.1179607e-01
  5.9371668e-01
 -1.7551316e-02
  6.3193984e-02
  1.1527676e-02
  8.2641673e-01
 -2.5951762e-02
  5.3468142e-02
 -3.2295641e-02
 -8.7849833e-02
 -9.4774090e-02
 -1.1507595e+00
  7.9606958e-03
  6.8499960e-02
  8.7416852e-01
  1.5411390e-01
  2.4227912e-02
 -5.2771449e-02
  1.7220271e-01
 -1.1811951e-01
 -4.0593691e-02
 -5.9402250e-02
 -9.7448856e-02
 -7.5263485e-02
 -4.4639044e-02
 -1.1070111e-01
  2.1948285e-01
  2.8914992e-02
 -7.4116278e-01
 -1.5229977e+00
  3.7223876e-01
 -1.1147130e+00
  1.2572825e+00
  2.4428052e-01
 -1.4034046e-01
  9.2022367e-02
 -4.3999318e-02
  3.3574086e-01
 -1.4370248e-01
  3.5160488e-01
 -1.2060669e-01
 -3.1129360e-01
 -8.0192018e-01
 -1.2610700e-02
  6.8629034e-02
  1.0900924e-01
  7.3459998e-02
  1.5267995e-01
 -8.7263305e-03
  3.5507485e-01
  8.1919506e-03
 -8.3689749e-02
 -3.8694796e-01
  8.3153725e-02
  1.4304748e-02
  1.0524245e-01
 -1.0794582e-03
 -1.3185792e-02
  6.2334675e-01
 -2.0988073e-02
 -2.3138573e-02
  6.7250565e-02
 -6.0865995e-02
  1.8125802e-02
 -2.4637695e-02
  6.8145174e-01
  4.5173377e-01
 -4.2783778e-02
 -7.5998493e-02
  1.4262365e-02
  3.4882214e-03
  4.5453895e-02
 -1.0510278e-01
 -9.5048465e-02
  4.0033028e-02
 -9.2961170e-02
 -2.4732236e-02
  6.9451749e-02
 -8.1047095e-02
 -3.5991940e-01
 -3.4012809e-01
  3.8256198e-01
 -1.2956996e-01
  4.2348150e-02
 -7.1327791e-02
 -2.3735574e-01
 -2.4102643e-01
 -4.7574155e-02
 -2.7426684e-03
  3.0523900e-02
  8.1395358e-02
 -2.0393571e-01
 -7.0169434e-02
 -4.7091555e-02
 -9.6448556e-02
 -8.5359909e-02
  1.1000774e-01
 -1.0172165e-03
  1.5336046e-01
 -2.7839148e-01
 -3.6214005e-02
 -7.2804421e-02
  5.0223485e-02
  1.1036202e-01
  1.0068247e-01
  1.2553220e-02
  1.2047359e-01
 -9.3292013e-02
  1.4899231e-01
 -1.2787393e-01
 -1.6787376e-01
 -6.3966185e-01
 -2.2400922e-01
 -1.4173840e-01
  2.2433171e-01
  8.8160910e-02
  7.8596920e-02
 -8.7567545e-02
 -7.9816490e-02
 -1.6455377e+00
 -2.8093414e-02
 -1.8897460e-01
  2.4135128e-02
  3.5888959e-02
 -7.8478679e-03
  3.9540146e-02
  1.6925409e-02
  7.6687314e-02
 -5.1844683e-02
  2.2543855e-01
  5.6137271e-02
  5.5463761e-02
 -1.2940575e-01
 -3.4110120e-01
  2.9224515e-01
  9.2372727e-01
  1.7221242e+00
 -3.7510246e-01
 -3.3044565e-01
 -4.9702084e-01
  7.2807777e-01
  8.5259509e-01
 -7.6783806e-01
  5.0450689e-01
  1.1097629e-01
  3.4682342e-01
  1.2766229e-01
  1.6481550e-01
 -2.1946497e-01
 -4.1038626e-01
  8.5217053e-01
  8.4752840e-01
 -4.1067037e-01
 -9.2081821e-01
  8.9856166e-01
 -5.7024722e+00
  2.4564922e-01
 -9.9621773e-01
  4.6835613e-01
  1.4422013e+00
  3.6108768e-01
  3.6193326e-01
 -1.0870984e-01
 -2.8521514e-01
 -1.6749597e+00
  2.1920986e+00
 -1.3678994e+00
  7.4270570e-01
 -7.5374812e-01
  2.8406537e+00
  1.6450700e-01
 -2.5821812e+00
 -9.8509187e-01
 -1.6816696e+00
  5.2235186e-01
 -4.2420182e+00
 -2.1344391e-01
  1.6901993e+00
  1.5751718e-02
 -1.2529033e-01
  6.9838065e-01
 -6.4845663e-01
  1.0734802e-02
  3.7825834e-02
  2.7645579e-02
  6.5278882e-01
 -8.5048217e-01
  1.1881961e-01
  7.2929782e-01
  8.8518998e-03
 -2.1746732e-02
 -7.3107608e-02
  2.4448177e-01
  2.4168668e-02
 -6.4802945e-02
  2.9576272e-02
  1.0925267e+00
  8.8171147e-02
 -3.9460938e-02
 -4.1862246e-02
  9.3144017e-01
 -1.9618221e-02
  2.7872197e-02
 -1.7372157e-01
 -1.0593354e-01
  2.4353595e-02
  1.4586696e-01
 -1.1418373e-01
 -5.4434203e-03
 -2.3014575e-02
  3.7047833e-02
  3.0871900e-02
  7.3146246e-02
 -1.2301338e-01
  1.7898089e-04
  1.9064750e-01
 -1.8978337e-02
  4.8878565e-03
  5.1592451e-02
  6.1505574e-01
  2.1612231e-01
  1.5295590e-01
 -6.9807637e-03
  7.7167735e-02
 -4.4981368e-02
 -2.0317864e+00
  1.3144369e-01
  2.7514499e-01
  2.0495547e-02
  3.2432559e-01
 -1.0599411e-01
 -2.3385910e-03
 -1.0627850e-01
 -3.0324826e-01
  1.1538042e-02
 -8.0876023e-02
  1.2801525e-01
  1.3120193e-02
 -1.4385761e-01
 -1.5477482e+00
  5.4120492e-02
 -8.9421146e-02
  1.0470785e+00
  9.6370733e-01
 -4.1154962e+00
  2.4113424e+00
  5.4503908e+00
  1.3479195e+00
  6.6089451e-01
 -2.2319860e+00
 -1.0700603e-01
  5.7642434e-02
 -1.2848957e+00
  2.3261840e-02
 -1.1251906e-01
  4.0725701e-02
 -1.2061907e-01
  6.9314644e-02
  7.9925463e-02
 -1.4589389e-01
  9.6643305e-01
 -2.9051119e-01
 -1.2425373e-01
  1.4258507e-01
  9.0735359e-03
  1.8012258e-01
  3.8625187e-01
 -7.0076801e-02
  9.5269322e-02
  1.6522866e-02
  1.9888732e-01
 -2.1434468e-01
  7.5009391e-02
  6.1658315e-02
  3.0481970e-01
  6.8810934e-01
 -1.4468953e-02
 -2.1877408e-01
 -1.0829078e-01
  3.0963349e-01
  1.4105475e-01
 -3.2566842e-03
  1.6902546e+00
 -4.2717330e-02
  4.4317476e-02
 -1.8086544e-01
 -1.3104942e-02
 -1.4880821e-01
 -3.5921821e-01
  2.0316818e-03
  1.4715087e-01
 -7.8151055e-02
  9.1783933e-02
 -1.6018511e+00
 -1.3719383e-02
 -1.3647422e-01
 -9.5438570e-01
 -1.2348309e-02
 -4.1652906e-01
 -6.9933549e-02
  3.9394695e-02
 -4.2883206e-02
  8.3923109e-02
 -1.0319322e-01
  3.3692759e-01
  1.0154165e+00
  3.9103761e-01
 -5.0955862e-02
 -1.6639723e-01
 -2.4048802e-02
 -3.4383655e-02
 -7.6087490e-02
 -5.9117977e-02
 -5.8280345e-02
 -3.0995676e-02
  3.4313995e-01
  1.8218784e-01
 -6.7447454e-02
  2.4084556e-01
 -2.3687819e-01
 -8.6653650e-02
  2.5929546e-01
 -1.2516079e-02
  1.4551862e-01
 -3.2535422e-01
  8.4276378e-02
 -9.9967457e-02
 -9.6347034e-02
 -1.0083287e-01
  5.7469606e-02
  4.2480137e-02
  6.2982522e-02
 -7.4640095e-02
  7.5295126e-01
 -1.8577950e-01
 -9.0055796e-04
 -1.5611823e-01
  2.2057882e-02
  2.8421885e-01
 -1.6675323e-01
 -3.2296166e-02
 -6.7548528e-02
  4.9957702e-01
 -1.5574364e-02
 -1.7337529e-02
 -4.7983807e-02
 -1.0813461e-01
  2.8364129e-02
  1.5067431e-02
  6.6739011e-01
  1.6090168e-01
  6.3077047e-02
 -8.2840875e-02
  1.8864572e-02
  1.8906520e-01
 -1.5552466e-01
  3.8313189e-01
 -2.5078455e-01
  5.1834065e-02
 -8.5080469e-01
  3.3808523e-01
 -1.7975947e-01
 -1.2145130e-01
 -2.9923642e-01
 -1.9944827e-01
  3.9272088e-01
 -1.6495843e-01
 -2.7254121e+00
  2.6076430e-01
 -2.1121638e-01
  2.0239443e-01
 -5.4024071e-03
 -1.2770206e-01
  2.1780793e-01
  1.9303808e-01
  4.5812646e-01
  9.1604657e-02
 -1.0517237e-01
  3.1221947e-01
 -3.6973676e-03
 -1.0582675e-01
 -3.5284769e-02
 -2.7118719e-01
  9.9069774e-02
 -3.1346977e-02
  9.7089863e-01
 -4.8882190e-02
  3.8178661e-01
  6.6229656e-02
 -3.0262792e-02
  3.3298638e-02
  6.3637950e-02
 -3.6727160e-01
  6.4587551e-01
  7.5194873e-02
  3.1440634e-02
  4.4117111e-01
  9.0068185e-01
 -1.4942457e-01
  4.0577054e-03
 -2.3968237e-02
  3.4567556e-01
 -2.6269290e-01
  1.3626140e-01
 -7.6093185e-01
 -9.9474587e-02
 -1.4081872e-02
 -1.8813902e-01
  3.7709184e-02
 -9.4305545e-01
 -2.4689326e+00
  5.7877898e-03
 -3.0060670e-01
  4.5600760e-01
  2.0078669e-01
 -1.0438758e-01
 -1.2323187e-01
 -2.0622572e-02
 -3.8906131e-02
  6.5481164e-02
 -4.0007669e-02
  1.0893692e-01
 -1.5756243e-01
 -1.1255785e-02
  1.0355534e-01
 -1.1924588e-01
  9.2890136e-02
  5.3830678e-03
 -4.8770458e-01
 -5.8690201e-02
  1.3210185e-01
  6.6507985e-03
 -1.2826237e-01
  8.0463849e-02
 -2.9798113e-02
 -2.1523516e-01
  2.0571500e-02
  4.4718180e-02
 -1.6127954e-01
 -1.9062932e-01
 -4.0884413e-02
 -3.4334716e-01
 -3.5991877e-02
 -6.7618400e-02
 -1.3226420e-01
 -2.7089404e-02
  6.7365509e-01
  9.6384369e-02
  2.4394873e-01
  1.1058168e-02
  4.1449834e-02
  3.0608705e-01
  8.2090408e-02
 -7.8954242e-02
 -1.5903515e-01
  1.0949519e-01
 -1.1917599e-01
  8.6730212e-02
 -2.4941249e-01
  2.6001256e+00
 -5.4422945e-02
 -1.4876827e+00
  1.7384993e-02
 -2.1297058e-01
  7.5590783e-01
  5.8795917e-01
  5.6630093e-01
  1.6499394e-01
  5.5804092e-02
  9.9044032e-02
  1.6379365e-01
 -7.4516654e-01
  4.3351191e-01
  3.6769349e-02
 -8.3572134e-02
  1.6039684e-01
  1.6421430e-02
  7.1688235e-02
 -6.8094549e-03
  5.7187158e-01
  2.2953607e-01
 -7.2695850e-03
 -1.2167059e-01
  4.3000321e+00
  1.0359953e-02
  3.4532312e-02
 -5.6198555e-01
 -2.2470199e-03
 -1.8583409e-01
 -1.2412468e-01
  1.4510436e-01
 -2.7477610e-01
 -7.6214343e-02
  5.5151755e-01
  1.3204424e-01
  1.5490237e-02
  1.7466776e-01
 -3.0585289e-02
  1.0877967e-01
 -2.8826708e-01
 -1.7043773e-02
  1.0688215e-01
  7.1829647e-02
  1.5699233e+00
 -6.6048458e-02
  8.7213144e-02
 -2.4403229e-02
 -2.1859122e-02
 -2.3141538e-01
  4.6068062e-03
  4.4739395e-02
 -1.2550955e+00
  7.5854075e-01
  1.1800946e+00
 -7.1876490e-01
  2.2129686e+00
  5.2314097e-01
 -1.1955775e+00
 -4.3716455e+00
  2.0927896e+00
 -2.5463831e-01
 -7.5542457e-02
 -7.2013199e-02
  2.6452094e-02
 -2.2405084e-02
 -1.5881686e-01
 -3.9695730e-03
  6.1974061e-01
 -1.2123546e-01
  6.0399331e-02
  9.4949931e-01
 -2.1294948e-02
 -4.8573270e-02
  4.9860846e-02
  3.5640188e-02
 -4.8940554e-02
  9.3412966e-02
  2.2956867e-02
 -2.8824475e-02
  4.7609471e-02
 -7.0054173e-02
 -9.1538858e-03
 -2.5713721e-01
 -3.6087539e-02
  1.2326578e-02
 -2.1490319e-01
  8.4705554e-02
  6.4322151e-02
  7.1330249e-02
  3.0230876e-02
  9.5584139e-02
 -1.1087527e-02
  7.5062290e-03
  1.2919299e-01
 -1.1400004e-01
 -2.2809720e-02
  1.9988056e-01
  9.2357025e-02
  4.3347474e-02
 -2.7648425e-02
  2.7121091e-01
  5.2654184e-03
  1.5266831e-01
  1.1366164e-02
 -8.5533035e-01
 -1.1862206e-03
  4.7357086e-02
  8.2171425e-02
 -9.3819237e-01
  1.7662868e-02
  7.2291911e-01
 -4.8056597e-01
 -1.1758620e-01
  1.3099078e-02
  1.2861034e-01
  1.4240767e+00
  4.2082053e-01
  1.6755572e-01
  1.2461407e-03
  2.5513591e-02
 -1.3007669e-01
  9.3889274e-02
 -7.3736769e-01
 -1.3449284e-01
 -1.2043454e-01
 -3.7575055e-02
  7.3764771e-01
  1.5745224e-01
 -2.9046409e-02
 -2.4244277e-02
  6.8530269e-02
  9.6453711e-02
  2.1086475e-03
 -1.0540179e-01
 -1.3967250e-01
 -5.7326544e-02
  5.7879355e-02
 -2.1195138e+00
 -8.2044704e-03
  1.0521317e-01
  4.3566525e-02
 -1.3765146e-01
 -1.0485166e-01
  4.9272329e-02
  3.5532020e-02
 -4.0897422e-02
 -5.5019289e-02
 -8.1765205e-02
  9.0153158e-02
 -4.8224545e-01
  1.7095198e-01
 -6.9850475e-02
  1.2792356e-01
  1.6342679e-01
  6.2222932e-02
 -7.4291192e-02
  1.2454216e-01
 -7.1481034e-02
  2.7349353e-01
 -4.7549304e-01
  3.3977914e-01
 -4.0799472e-03
 -4.6184438e-01
 -1.0343072e-01
  3.5641499e-02
  2.0044313e-03
  2.5293869e-01
 -1.0361784e-01
 -3.9808415e-02
 -5.9145417e-02
  8.2824014e-02
  1.2526308e-02
  9.3945544e-03
 -2.2056872e-01
  6.1736453e-02
  9.4921015e-02
 -1.1292578e-01
  1.1971092e-02
  1.0078167e-02
 -9.3506493e-02
  7.9315286e-03
 -1.0982409e-01
 -2.2842230e-02
  2.9969013e-01
  6.4804286e-01
 -4.8831992e-02
 -3.7386339e-02
  9.8588215e-03
 -9.4573619e-03
 -1.3225962e-01
  1.0421269e-01
 -2.3977496e-02
  3.8663525e-02
 -6.1990444e-02
 -4.4726331e-02
 -1.2830940e-01
  3.4009036e-01
 -8.4700055e-02
  5.1912278e-02
 -5.0474528e-02
  1.7296055e-02
 -1.4713366e-01
 -3.7180394e-02
 -1.7014014e-02
 -2.4680071e-02
 -5.4889072e-02
  1.2140314e-01
 -1.1205093e-01
  1.1467655e-03
 -2.8366622e-02
  1.6905847e-01
  2.8054795e-01
 -9.4138287e-02
 -5.4060418e-02
 -5.1705194e-01
 -4.0990073e-02
 -1.9948192e-01
  2.2667238e-01
 -9.6705872e-01
  1.9451642e-02
 -8.5372466e-01
 -1.0665720e+00
 -5.9645307e-01
  9.3298808e-02
  2.0612852e-01
  2.3977977e-01
  1.3248632e-02
  5.5267859e-02
 -4.0732673e-01
 -9.2045081e-01
  2.8978667e-01
 -5.6865501e-01
 -2.0809621e-01
 -2.0691910e+00
 -7.1589828e-01
 -1.4457186e-01
 -5.9840851e-02
  3.6629906e-03
 -1.2390170e+00
 -1.3698359e-01
  6.3828129e-01
  3.2946625e-01
 -2.2540785e-02
 -5.1550680e-01
 -2.9288538e+00
  4.6089229e-01
 -5.3988802e-01
 -2.3297861e-02
  2.9133970e-01
  6.0094106e-01
  3.3834744e-02
  1.4870758e-01
 -5.6533223e-01
 -4.9877996e+00
  3.4907824e-01
  2.1976742e-01
 -1.1035061e-01
 -1.2593352e+00
 -7.6683737e-02
  3.0943450e-01
  1.6336699e-01
 -1.0500345e-01
 -4.7587842e-02
 -1.6262360e-01
 -8.9506000e-01
  4.6289030e-02
 -6.9410279e-02
 -1.1737542e-01
  5.0490069e-01
 -2.0459154e+00
 -1.6094533e-01
  4.7920427e-01
 -2.3135865e-01
 -2.0570181e-01
 -2.8401998e-01
 -2.6081496e-01
 -2.3346135e-01
  1.9455422e-02
  3.5879865e-01
  1.2039025e-01
 -2.1620692e-01
  1.6860973e-02
 -1.6277479e-01
 -5.5946544e-02
 -7.9471755e-01
 -9.1565736e-02
 -7.8147426e-02
 -7.9962760e-02
  5.8936870e-01
 -6.4572118e-02
 -1.1634792e-01
 -8.6819512e-01
  2.4790777e-01
  7.8918733e-02
 -9.7665036e-01
  8.0529675e-03
  3.5403574e-01
  3.4007338e-01
  1.5158112e-01
 -9.0738112e-01
  2.7646905e-01
 -4.3596546e-03
  1.5565285e-01
 -2.4235329e-02
  1.5618616e-01
 -2.9411783e-02
  1.9359946e-02
  4.4366941e-03
 -6.4957064e-01
 -1.3517621e-01
 -3.6049692e-03
 -2.7851569e-03
 -3.0511953e-02
  2.1901438e-01
  8.5918471e-02
 -1.8524252e-01
  4.9787506e-01
  1.7530070e-01
  7.5044215e-02
  1.8805671e-01
  9.3387417e-02
  7.2677052e-01
  4.5632410e-01
 -5.8618058e-02
  2.2228102e-01
 -2.1179593e-01
 -1.9522495e+00
  6.1893457e-01
 -8.1055903e-01
 -5.5963170e-02
  1.7563894e-01
 -1.6482167e-01
 -3.5706088e-02
 -1.6089797e-01
 -3.1214682e-02
 -4.8114926e-01
 -5.4716116e-01
  2.7943935e-02
 -5.3261936e-01
  9.5117234e-02
  8.0709763e-02
 -4.2064093e-02
 -6.2124473e-01
 -1.1677892e-01
  1.1103548e-01
  3.8084961e-02
  2.0274818e-01
 -1.6200308e-02
  1.3814384e-01
  1.2812756e-01
  1.5094183e-01
 -5.9393235e-04
 -1.9960369e-01
 -1.2134574e-01
  2.4290346e-02
 -8.8570394e-02
 -9.7275540e-02
 -5.0665654e-02
  4.1439161e-02
  3.1699896e-02
  1.2834884e-02
  7.5374566e-02
  1.6027054e-02
 -7.9275548e-02
 -5.9662107e-02
  2.9931046e-02
 -5.5882074e-03
 -2.4496464e-02
  2.2661142e-01
 -2.0796910e-02
  3.0545797e-03
 -2.3451160e-01
 -5.1908609e-03
 -8.7203935e-02
  5.1392341e-01
 -1.2542065e-02
 -2.6114416e-01
 -5.9032345e-01
  2.5384220e-01
  4.5546755e-02
 -3.7377838e-02
 -2.9408348e-01
 -1.5517219e+00
  3.5677227e-01
  1.8668285e-01
 -3.2671303e-01
  1.2014241e-01
  1.3937320e-01
 -2.9426647e-02
 -1.1119185e-01
  1.4090538e-01
  1.1228207e-01
 -3.0377793e-01
 -3.7268123e-01
 -3.9480474e-02
  1.4766624e+00
  2.5909699e-02
  1.0273927e+00
  1.4183675e+00
 -8.8644721e-02
 -1.4275943e-01
 -2.3905965e-02
 -2.1005270e-01
 -1.4676373e-02
 -4.8418406e-02
 -1.5325406e-01
  8.6020494e-01
 -7.2903651e-01
  2.7777877e-01
  5.4344428e-01
 -8.7314773e-01
 -7.6237716e-02
  2.3687139e-01
 -1.6036581e-01
  1.1766774e-01
  2.1920383e-02
  8.4184164e-01
 -1.0541604e-01
  1.6924912e-02
 -1.4368299e-01
  1.0715240e-01
 -2.9163680e-03
  1.1779545e-01
  3.2562369e-01
 -6.2931906e-03
 -1.8554023e-01
  1.1360234e-03
  7.1945921e-02
  7.9483277e-01
  6.3656360e-01
  2.7561584e-01
  5.5514041e-02
 -9.4209713e-01
  1.3429650e+00
 -3.1878684e+00
  2.8243563e+00
  1.0522197e+00
 -2.1309018e-01
 -9.2147151e-03
  2.9286379e-03
  1.2558502e-01
  9.6668743e-02
 -4.0803605e-01
  1.1727620e-02
  7.1907878e-02
  1.6289034e-01
 -5.6686769e-03
 -6.6801593e-02
 -7.9910375e-02
  4.2114081e-03
  8.7860078e-02
  1.0665213e-01
 -2.5185490e-01
 -9.2161202e-04
  8.4867693e-02
 -8.8534184e-02
  1.8330563e-02
  7.3728405e-02
  1.6134748e-01
 -1.9454160e-01
 -1.3109659e+00
  1.0560659e-01
  5.0307721e-02
  2.1910723e-01
  2.7512684e-02
 -8.8697657e-02
 -6.7849642e-01
  1.7009006e-01
 -4.7338647e-03
  1.9350804e-02
 -4.9091181e-01
 -3.1358826e-01
 -1.0042106e-01
 -9.9025309e-01
 -3.5527453e-04
 -9.8893372e-03
  1.6695575e-01
 -3.6374424e-02
 -1.3974264e-02
  8.2496822e-02
  3.7726048e-01
 -9.1117613e-02
  2.6374385e-01
  4.3835837e-01
  1.5839158e-01
 -9.7021960e-02
  1.2186198e-01
  1.0382022e-01
 -7.7122830e-02
 -5.7130408e-01
  1.5150058e-01
 -6.8506144e-02
 -1.5174747e-01
 -4.7003377e-02
 -3.4247190e-02
 -3.2347862e-02
 -5.1436216e-01
  2.5203810e+00
  1.5830231e-01
 -1.1105302e-01
 -3.7187126e-02
  5.7533417e-02
  3.3120573e-02
  7.5636752e-04
  1.6671769e-01
 -4.0683285e-03
 -1.0954871e-01
  1.2561058e-01
 -1.7219377e-03
 -5.1748455e-02
  5.8189038e-02
  1.5359911e-01
  6.1109867e-02
 -9.4276100e-02
 -6.5022774e-02
 -1.7545095e-01
 -1.3304235e-01
 -1.0760137e-02
 -2.3884375e-01
  1.5124637e-01
  2.3698960e-01
  5.3671733e-02
 -3.3676945e-02
 -2.7391885e-03
  1.0990887e-01
  2.6428953e-03
 -2.7826118e-01
 -9.4479807e-02
  1.0087898e-01
  6.1290014e-01
 -1.2786743e-01
 -4.1289967e-02
 -1.6273279e-02
  4.7232352e-02
 -1.8812481e-02
 -1.3421107e-02
 -9.6517533e-02
 -7.0913517e-01
 -1.1467658e+00
 -9.4123375e-01
  2.6186603e-01
 -1.5767592e+00
 -1.5847472e+00
  2.1211143e+00
 -3.1020802e-01
  7.9397345e-01
  7.7897489e-02
 -6.0161263e-02
 -1.2669317e-01
 -1.1857486e+00
 -5.2595139e-01
  2.1370445e-01
 -1.1802064e-01
 -1.7621769e-01
 -3.0099052e-01
  4.1493658e-02
  6.7038715e-01
 -6.1371513e-02
  1.1578136e-02
  4.9681604e-02
 -6.9373496e-02
 -7.8245872e-01
 -2.2959353e-01
  5.3973985e-01
 -1.5306380e-01
  1.6721842e-01
 -6.7556821e-02
 -1.1043978e-01
 -1.1406543e+00
  5.4513786e-02
  2.2909859e-01
  1.1717749e-01
 -7.9849666e-01
 -8.1659579e-01
 -6.6817388e-02
  1.5945753e-02
 -1.4260668e-01
 -1.8985207e+00
 -2.3941989e-01
 -3.0629250e-01
  9.0747699e-02
  3.0864528e-01
 -5.9110090e-02
 -4.3123242e-01
  3.5561316e-02
 -1.3464008e-01
  2.4008155e-02
  1.5130086e-01
  4.0426951e-02
  6.6781603e-02
 -6.3444369e-02
 -6.8198079e-01
 -3.3818427e-02
  1.5811850e-01
  6.6654220e-02
  2.0285459e-01
 -9.5519441e-01
 -5.7145227e-03
  1.6976237e-01
 -1.1970135e-02
 -3.3012784e-01
 -2.0526512e-01
 -3.1574342e-02
 -5.9724193e-02
 -4.4562384e-02
  8.7716430e-02
  3.1411102e-01
 -1.4056502e-01
 -1.1456396e-01
  6.1375879e-02
  8.4989823e-02
  2.2602523e-02
 -2.1215754e-02
 -1.3263592e-01
  6.8806246e-02
 -6.0730893e-02
  9.8490976e-02
  4.6991352e-02
  7.9113012e-03
 -2.8195953e-02
  1.1016744e-01
 -1.0660153e-01
 -1.3414018e-01
 -1.1645596e-01
 -1.2171451e-01
 -1.5121706e-01
 -7.2037153e-02
 -2.0038366e-02
  1.7638015e-02
 -2.0546811e+00
  2.9752630e-01
  2.0863175e-01
  3.3713874e-01
  1.3577385e-01
  9.7809233e-02
  2.0340735e-01
 -1.9495897e-02
 -2.5641564e-01
  1.0686942e-01
 -2.7148988e-02
  1.4178649e-01
 -1.2721306e-01
 -1.4893672e-01
  6.1114930e-02
 -1.9427623e-01
  1.3477831e-01
 -1.3095294e-02
  2.3285529e-01
  1.4075731e+00
  2.8948036e-01
 -7.9203773e-01
  1.6436657e-01
  4.5350131e-01
  1.2710494e+00
 -4.6081138e-01
 -1.0427059e+00
  7.1370482e-01
 -1.3618597e+00
 -1.4205034e-01
  8.7201232e-01
 -1.1063445e+00
  1.7606003e-02
  3.5726067e-01
 -1.7963994e-01
 -2.5169045e-01
  1.2424905e+00
  1.8531629e+00
 -9.0300894e-01
  1.3585422e+00
 -2.6887448e+00
 -1.0524771e+00
 -9.2977792e-01
  9.4128728e-01
 -3.3616316e-01
 -1.1895107e-01
  1.0201967e+00
 -3.9887038e-01
 -4.2789713e-02
 -1.7678930e+00
 -4.5531851e-01
  1.1013174e+00
 -1.3580867e+00
  8.3664960e-01
 -2.1786311e+00
  2.0667474e+00
 -1.1849930e+00
 -6.1002147e-01
 -4.8592105e+00
  9.8298050e-02
  2.5793960e-02
  4.1121635e-01
  1.6124353e-02
 -3.5765558e-02
  6.1658952e-02
 -2.5268679e-02
  8.5277468e-02
 -5.4400221e-02
 -2.1868191e+00
  8.3302274e-02
 -7.1535625e-02
 -4.0574022e-02
  3.0585576e-02
 -1.6801690e-01
  7.3418975e-02
 -7.3614158e-04
  7.9713064e-01
  1.0476911e-02
 -4.1767005e-02
 -1.8586810e-01
  9.1876948e-01
 -3.7426907e-01
  1.0509903e-03
  3.0582249e-02
 -4.6721872e-02
 -7.0987493e-02
  2.5164990e-02
 -1.8726885e-01
  7.3642159e-01
 -1.3833699e-01
 -2.0041955e-01
  2.1655661e-01
 -3.7180062e-03
 -4.0322155e-02
 -4.0222508e-01
  3.2738373e-01
  8.2318611e-02
 -1.0180762e+00
  9.8195717e-02
 -7.5278379e-02
  1.7281051e-01
 -1.7262259e-01
  6.6445678e-02
  1.4327890e-01
  1.2657653e-01
 -2.5851351e-01
  3.0243814e-01
 -1.6308506e-01
 -2.4629422e-02
  8.2661569e-02
  1.6953970e-01
  2.1078569e-01
 -9.5026210e-02
  2.1428500e-01
  4.4957008e-03
 -4.4074956e-01
 -1.1543770e+00
 -5.1891345e-01
 -8.8060036e-02
  1.3686206e-02
  3.1607926e-02
  1.6559102e-02
  8.3814934e-02
  1.6031937e-01
  2.6707742e-01
 -5.4677659e-01
 -5.8935527e-02
 -5.1656086e-02
  2.1575149e-02
  8.4030217e-01
 -8.3932616e-02
 -3.7965398e-02
  4.9087148e-02
 -1.5091422e-01
 -5.7472538e-02
  2.9966688e-01
 -2.2989867e-02
  3.7344582e-02
 -1.2460030e-01
 -1.0126615e-01
 -8.3781872e-04
 -2.0299473e-01
 -2.5630990e-01
 -9.6550621e-02
 -1.7653191e-01
 -4.5300743e-01
  5.2370019e-02
  4.6840627e-03
  1.1957785e-01
 -9.4533481e-02
 -4.6061970e-02
  1.0484117e-01
 -7.5821839e-02
  1.7022084e-02
  1.5367857e-01
 -4.4477019e-02
  8.2140423e-02
 -1.4943515e-02
  2.5863566e-02
  3.0676225e-02
  1.4887342e+00
 -5.3416569e-02
  1.5070782e+00
 -1.5345004e-01
 -2.3852430e-02
  2.3794090e-03
  1.6192496e-02
  3.6178976e-03
  2.8273329e-01
  1.2707911e-02
  2.7295235e-01
 -3.0830631e-01
 -2.0589656e-01
  7.1498640e-02
 -1.0499125e-01
  4.7470003e-02
 -7.7532984e-02
 -3.9625525e-02
 -6.0710978e-02
 -1.4411117e-01
 -1.5576845e+00
 -2.3999402e-02
  4.4463563e-01
  2.5851196e-01
 -2.7039611e-01
  1.9598846e-01
  3.2813868e-01
  8.8412333e-01
 -6.5001655e-01
 -5.3678548e-01
  1.0256200e+00
  1.4758898e+00
 -1.1780955e+00
  1.1785865e-01
 -1.6999171e+00
  1.3609651e+00
 -3.4558293e-01
  5.9894580e-01
  1.2588862e+00
  5.6136757e-01
  3.4358890e+00
  3.3611448e+00
  1.3913163e-02
 -3.8747511e+00
 -7.4382049e-01
 -4.0545493e-01
  8.2008255e-01
  2.0374753e-01
  9.1460389e-01
  4.6768406e-01
  7.1163470e-01
  1.3470559e+00
  7.2688632e-02
  1.9485896e-02
 -3.2249659e-01
 -1.6714288e+00
  7.5517780e-01
  5.1505666e+00
  1.8976305e+00
  3.0663040e+00
 -4.5381498e-01
 -1.3650830e-01
 -1.8710840e-01
  7.9088770e-02
  7.5822979e-02
 -3.5314706e-01
  5.2514691e-02
 -2.3070109e+00
  1.7770503e-02
 -1.3113388e-01
 -8.8809568e-01
 -1.1514064e-03
  8.7055928e-01
  8.8385874e-01
  2.2831305e-03
 -1.2963346e-01
  1.1986188e-02
 -1.0368805e+00
 -3.7139183e-01
  3.6617476e-02
  3.7809826e-02
  4.3573447e-02
  3.9114255e-01
 -1.1920885e-02
 -2.7506709e-01
  3.8502883e-02
  1.5703565e-01
 -1.8672353e-01
  7.4229926e-02
 -3.4768701e-02
 -2.5207081e-01
  7.6613283e-01
 -9.8943800e-02
  3.9527766e-04
 -2.6965545e-02
  9.9155731e-02
  1.6979760e+00
 -6.6846460e-02
 -2.1506852e-02
  1.0522757e-01
 -1.9015053e-01
  6.0032271e-02
 -1.3305710e-01
 -1.0628636e-01
 -6.8742968e-03
  3.1281628e-02
  1.6650383e-01
 -3.6502194e-03
  1.5596835e-01
 -9.7769219e-03
  5.8223393e-02
 -3.0743837e-02
 -1.3251945e-02
  2.2519816e-02
  5.1935501e-02
 -1.9215215e-02
 -1.4401729e-01
 -9.8187858e-01
  1.3563485e-01
  3.4922726e-02
  8.7874598e-04
  2.2373041e-02
 -5.2208847e-01
  7.5215264e-03
 -1.8484482e-01
 -6.8139441e-02
 -1.3847873e+00
 -1.1003352e+00
  1.6290954e-01
  1.2705925e-01
  7.5556114e-03
 -1.0175157e+00
  2.6240942e+00
  1.6430368e+00
  1.6328893e+00
  3.4676623e-02
 -2.3038888e-02
  7.8961834e-02
  3.7081048e-01
 -2.7976975e-01
  1.4676894e-01
  3.0542074e-02
 -3.1503373e-01
  3.8152868e-01
 -5.7433941e-03
 -1.4780812e-01
 -1.1834326e-01
 -8.5600153e-02
 -5.4249883e-01
 -1.5049933e-02
 -2.1341708e+00
  1.8256746e-02
 -4.1683320e-02
 -2.5122082e-02
  2.5865757e-03
  5.7315242e-02
  8.0172785e-02
 -3.8833189e-01
 -1.0451026e-01
 -4.2789671e-01
  1.9546039e-01
  1.6290070e-01
 -3.2815062e-02
  1.5942365e-01
  1.2748139e-01
  3.5004904e-03
 -1.8877694e-02
  4.6967502e+00
  6.0105831e-03
 -6.1120115e-02
  1.5754238e-01
 -4.8864530e-03
 -1.8150790e-01
  2.8009003e-02
  2.1507065e+00
 -3.3857575e-01
  1.5039833e-02
  7.3376559e-02
 -8.0806337e-02
  2.6334020e-01
  3.1969678e-01
 -7.5239502e-02
 -1.0639646e+00
 -1.9708431e-01
  2.4942885e-01
 -2.6387002e-02
 -5.4576331e-01
 -7.1276182e-01
  8.8822114e-01
 -4.2803705e-01
 -4.0038946e-01
  2.5833228e-01
 -4.6181759e-01
 -8.1752308e-02
 -5.3283489e-01
 -9.7932422e-01
 -1.6815573e-01
  4.2677113e-01
  7.7419704e-01
 -1.0888283e+00
 -2.7157285e+00
  2.5372293e+00
 -1.1965933e+00
 -1.6913335e+00
 -9.9813628e-01
 -1.2300177e+00
  1.4503685e+00
 -5.4989743e-01
 -6.8802577e-01
 -3.1783071e-01
  1.2554209e-01
  1.1464129e-01
 -2.4549475e-01
  1.2018603e+00
  9.7400403e-01
 -4.2849204e-01
  1.0950702e+00
 -6.8662679e-01
 -2.0316842e+00
 -2.2609935e+00
 -7.0283616e-01
  3.2041450e+00
 -1.4566981e+00
  3.6015716e-01
 -1.0337202e-01
  2.4298361e-02
  1.5583991e-02
  3.3852318e-01
 -1.4497516e-01
 -1.0181577e+00
 -5.2566614e-02
  2.1656291e-01
  2.2457296e-01
 -2.3144396e-01
  6.6467009e-02
 -1.8071373e-01
  4.4779986e-02
 -1.7211857e+00
 -1.3466705e+00
 -1.3350424e-01
 -5.6604785e-01
  4.5762639e-02
  8.2461381e-01
 -8.8932812e-02
  7.8372415e-03
  3.1844009e-02
  4.3643024e-03
 -1.7832007e-02
  4.1297089e-02
  2.9175434e-01
 -4.3400530e-02
 -9.2196040e-02
 -5.4374270e-02
 -1.0976716e+00
 -1.3663732e-01
  4.9784284e-02
  6.1376527e-02
 -1.9234566e-01
  3.5436242e-03
 -7.8818209e-02
 -6.5404512e-02
 -9.2544548e-02
 -4.7792833e-02
 -1.9424658e-01
 -2.9552109e+00
 -6.6321748e-01
  4.7417127e-02
 -1.0272154e-02
 -4.3139312e-02
 -1.3668659e-01
 -6.2205777e-02
  1.1539052e-02
  2.8799242e-01
 -6.6261470e-02
  2.2107910e-01
 -2.2385872e-03
 -9.9644445e-02
 -5.7981297e-02
  3.3586521e-02
  1.5285206e-01
 -1.1339483e-01
 -3.3582643e-02
  3.5494059e-01
  1.7342359e-02
  1.7366143e-01
 -4.8069071e-02
  1.0363369e-01
  2.0413719e-01
  2.1706340e-01
 -4.8736032e-02
 -3.2326347e-01
  5.2712981e-02
 -5.4198670e-01
  3.4912288e-02
 -3.8974345e+00
  1.3102417e-02
  5.9170265e-02
  7.3847926e-01
  2.9526014e-02
  9.2249420e-03
  3.0635315e-01
  8.4311610e-01
  8.1031509e-02
 -2.1632325e-02
 -2.1076192e-01
 -8.3245277e-02
 -2.9030429e-02
  5.5023781e-03
  4.6239343e-02
 -5.9771806e-02
 -1.6997711e-01
  1.3532247e-02
  1.8469380e-02
 -1.4878640e-01
 -6.9634132e-02
  1.0292353e-01
  9.8338351e-03
  3.9500974e-02
  1.2070884e-01
 -1.5793229e+00
 -8.3943047e-02
 -2.6182806e-01
  6.0290929e-02
 -1.7872171e-01
  4.8177425e-02
  5.9459192e-01
 -1.9740503e-02
  7.3290505e-02
 -3.5893507e-02
  4.2840894e-02
 -8.4969029e-02
  2.2930567e-01
  4.1514650e-02
  2.4904850e-01
 -1.6477932e-01
  6.4633721e-01
 -4.2908099e-03
 -1.7159338e-01
 -1.3959998e-03
 -1.2391360e-01
  2.4105041e-01
  5.7072681e-01
  1.7855164e+00
 -7.7539754e-01
  4.2787127e-02
 -2.6933212e+00
 -6.9413614e-01
  1.7162465e-01
 -1.4632995e-01
 -5.6203765e-01
 -1.4464529e+00
  4.9108762e-01
  8.2346044e-02
  5.7828063e-01
  2.7058032e-01
 -1.3899781e-01
  5.5717751e-02
  3.0965911e-02
  5.3806257e-01
  2.8456938e-01
  1.8629697e-01
 -4.9541175e-02
  7.6724906e-03
  3.0093044e-01
  2.6024589e-01
 -1.1142982e-03
  8.4508605e-02
  4.9140252e-02
  2.0609760e-01
  3.4350600e-02
  1.5012403e-01
  1.7727037e-01
  7.7696078e-02
 -8.7636375e-01
  7.0524734e-01
  6.1229751e-02
  7.6901585e-01
  1.9501442e-02
 -1.1107363e-02
  3.8699396e-02
 -1.7029150e-01
  1.3512135e-01
  7.3357135e-01
 -5.1582556e-02
  1.1576036e-01
  1.4363387e-01
 -4.5444351e-01
 -7.3224646e-01
 -3.8034427e-01
 -2.8163663e-01
  3.0106064e-02
  8.2971059e-02
  5.5921245e-02
  1.2428908e-02
  2.2673182e-02
 -8.9528933e-02
 -1.6000475e+00
  1.5645516e+00
 -2.5830045e+00
 -1.4855036e+00
 -6.3279098e-01
  2.3111302e-02
  1.2056343e-01
 -1.3416132e+00
  1.9284621e+00
 -1.9379048e-01
  4.7800321e-02
 -1.0357388e+00
 -1.0602643e+00
 -1.7229693e-01
 -1.1663842e-01
  5.6642854e-01
  1.4031078e-01
  2.9929647e-01
  9.3095051e-04
 -2.4015945e-01
 -2.7896337e-02
 -2.5667448e-02
 -1.5760915e-01
 -1.1794067e-01
  1.3264555e-01
 -1.2844814e-01
  1.0699639e-01
  1.5387805e-01
  1.9893943e-01
  9.4303556e-02
 -2.2112964e-02
 -4.1890335e-01
 -4.2366919e-01
 -3.9299113e-01
 -4.7168843e-02
 -2.2721243e-01
 -1.8192552e-02
 -1.3471578e+00
 -5.5541849e-01
  6.4245954e-02
 -2.3152286e-02
 -8.3879689e-03
  1.3441411e-01
  7.6926753e-02
 -9.7779870e-02
 -6.1260045e-01
 -3.1954303e-01
 -3.5190016e-02
 -1.0735331e-01
 -3.1188946e-02
  4.1965391e-02
 -2.7336601e-02
  3.3537637e-02
 -2.9603153e-01
  5.1748949e-01
 -1.8233471e-02
  2.4513713e-01
 -1.6221478e+00
 -4.6039626e-02
 -9.0523982e-01
  5.6184065e-01
  2.6218328e-01
 -9.7323228e-03
 -1.6092271e-02
 -7.4152656e-02
  9.4867676e-02
 -3.9730381e-02
 -5.7363607e-02
 -1.3398945e-01
 -3.5004544e-01
  9.1835177e-03
  5.0823636e-02
  8.5559132e-04
  1.2915380e-01
  2.6857120e-01
 -8.7621979e-02
  1.9605477e-01
 -2.0637143e-01
  1.1833679e-01
 -9.4246734e-03
 -3.3763204e-02
 -1.4757629e-01
  1.4272487e-01
  1.7601036e-01
 -7.7208631e-02
  9.0787373e-02
 -4.1960228e-02
 -9.7228467e-02
  2.6884617e-02
 -6.7653470e-02
 -3.3357687e-02
  4.7020152e-02
 -5.2768655e-02
 -3.3506220e-03
 -3.7644745e-03
 -1.4709595e-02
  1.6018683e-02
 -3.3930101e-02
 -3.8442463e-02
  5.8545613e-01
 -1.8998960e-02
  5.0591300e-03
 -1.4475062e-02
 -2.7963567e-01
  5.1820844e-01
 -2.7614621e-02
  5.3649807e-01
 -2.9822076e-02
  3.7417629e-01
 -8.7016296e-01
 -8.7598729e-01
  8.2713848e-01
  3.4288332e-01
 -4.7444854e-02
 -2.6454625e-01
 -4.9480069e-02
  1.1802696e+00
 -1.1492045e+00
  6.5793687e-01
  5.4707772e-01
 -3.8806716e-01
  1.0168956e-01
  3.6861092e-01
 -2.5240961e-01
 -1.5340148e-01
 -1.4639001e-01
  1.2637131e-01
  8.8427946e-02
 -1.7301363e-01
 -2.1163848e-01
  1.0585155e+00
 -3.2294455e-01
  4.2197412e-01
  8.8149056e-02
  7.2438613e-02
  2.3023150e+00
  1.9457480e-02
  6.2897629e-01
 -1.9926201e-01
 -6.9879854e-01
 -7.7119609e-03
  2.0635580e-01
  5.6976295e-01
 -6.1079961e-01
 -3.6318600e-02
  9.0166656e-03
 -9.8724328e-02
  1.0416058e-01
 -5.0253028e-01
  2.1285795e-02
  3.4149376e-01
 -7.6307096e-02
  1.6151864e-02
  1.2552529e-03
 -6.3237321e-01
 -3.9083564e-01
  6.5886056e-01
  1.3250671e-01
 -7.1158195e-01
 -1.4150441e-01
 -2.6701549e-03
  8.0645084e-02
 -2.6918206e-01
 -9.6936472e-02
 -7.0838504e-03
  8.0372348e-02
 -1.3490097e-01
 -1.6049863e+00
 -6.1572533e-02
  6.1422005e-02
 -7.9635102e-03
  1.7532572e-01
  1.0186574e-01
  3.5353723e-01
  3.3549024e-03
  5.2288759e-01
 -1.5178514e-01
  3.3528635e-01
  2.1639384e-01
  2.2739589e-01
 -1.4851901e-01
 -6.9071078e-01
 -2.2296334e-02
  1.3834014e+00
  1.3089885e-01
 -2.2315797e-01
 -2.5106820e-01
 -1.0484251e-02
  2.8057268e-01
  1.3990451e+00
 -1.3607939e-01
  4.9355987e-02
 -3.3282392e-02
  1.1280188e-01
 -7.1712695e-03
 -1.1194428e-01
  4.7620839e-01
 -3.2854542e-02
  1.7518154e-04
  3.8802825e-02
 -1.3205621e-01
 -1.2162479e+00
  7.1730264e-02
 -1.3697673e-01
 -5.8585551e-02
 -1.3962041e-01
  2.9907519e-01
 -1.2116399e-01
 -1.2309541e-01
  7.7038566e-03
  6.0088567e-02
  8.0164947e-02
  7.1852215e-02
 -1.8882082e-01
 -1.7669907e-01
 -8.7721869e-02
 -2.1022402e-01
 -5.8092172e-03
  7.5305574e-02
 -2.5792299e-03
  2.3039207e-03
  1.0380322e-01
  2.2208598e-01
 -5.6945324e-01
 -1.5289530e+00
  9.0930857e-02
 -2.7673599e-01
  1.7356755e-01
 -6.8007603e-02
 -6.3718188e-01
  1.5271451e-01
 -1.6618717e-01
 -3.6946356e-01
  6.0648147e-02
 -4.3381725e-02
 -8.7579809e-02
  2.2607137e-01
 -1.9590033e-02
 -2.0324785e-02
 -1.3939421e-01
  5.5418942e-02
 -9.8825641e-02
  1.6379392e-02
  3.9814216e-01
 -1.7139721e-01
 -2.1010070e-01
 -7.5461783e-02
 -5.1535761e-01
 -5.6825973e-02
  9.8192673e-03
 -4.8684880e-02
 -1.1521899e-01
  8.8884123e-02
  2.6440570e-01
 -1.3778050e-01
  1.3876176e-02
  3.2306939e-02
  7.0920266e-02
  1.7713560e-01
  5.1040377e-02
  1.0982585e-01
  4.6233259e-02
  1.0323233e-01
  2.1168284e-02
 -3.0102521e-01
  2.2071262e-01
 -4.8496325e-02
 -2.5652197e-01
 -7.7302299e-02
  3.4309573e-02
 -6.3335490e-01
 -2.9845086e-01
  5.9678495e-02
 -2.6114884e-01
  9.3874648e-02
 -8.2186595e-02
 -1.1492537e-01
  2.3540951e-02
 -1.4354987e-01
  5.3055767e-02
  5.1193599e-02
 -2.1579450e-01
  1.8580715e-01
 -8.3629780e-02
 -3.5317898e-02
  4.6094239e-01
  1.2919261e-01
  1.3641283e-01
  1.9685857e-02
  1.5415814e-02
  8.7914538e-01
 -4.5144878e-02
 -3.5304252e-02
 -9.4765753e-02
 -3.6086008e-02
 -1.3720381e-01
 -1.0069445e-01
 -1.1353593e-01
  4.1915234e-03
  7.5349197e-02
  4.7697678e-02
 -1.7728050e-01
  1.9045449e-04
 -2.7460627e-02
  9.7589724e-02
  9.8308468e-01
 -4.4171673e-01
 -1.2338338e-01
 -1.0978822e+00
 -9.5003610e-03
  2.7507830e-02
  5.6232095e-01
  3.6332849e-02
 -1.3382208e+00
 -2.1875629e-02
 -4.3591955e-03
 -2.6653301e-02
 -5.4292247e-02
  6.3460715e-02
 -8.1593767e-02
  1.6314045e-01
 -1.5672448e-01
  5.7566017e-01
 -1.8066235e-01
  2.3183217e-02
  2.0694546e-02
  1.6080810e-02
  3.5323448e-02
  3.2721084e-01
 -9.0554200e-02
  1.2116174e-01
  1.6489859e-01
  2.0558457e-01
 -1.2662506e-01
  1.3811223e-01
 -3.4546457e-02
 -9.6028917e-02
 -3.5343945e-01
  2.7791921e-02
 -3.2424178e-02
  2.5098768e-01
 -1.8737973e-01
  7.7336296e-02
  8.8435747e-02
  2.0366114e-01
 -1.6857244e-02
 -3.3511955e-02
  9.7062476e-03
 -1.8141276e-01
 -2.2486340e-02
  1.7274542e-01
 -6.8811759e-02
  1.8850435e+00
  1.4769326e-01
  2.8016081e-02
  1.3199392e-01
 -1.2090422e-01
 -1.6200426e-01
  1.7221226e-01
 -2.6313705e-02
  1.4787619e-02
  7.7466083e-01
 -1.8458843e-03
 -1.9091556e-02
 -7.4556910e-02
  1.0419476e-01
 -1.1121704e-01
 -3.5788018e-02
 -4.7158901e-02
  2.7130353e-01
  3.4671642e-02
  9.3320236e-02
  8.2037099e-02
 -1.5656646e-02
 -1.5388034e-01
  8.2928084e-02
 -6.5798022e-02
 -2.6575437e-02
 -4.4798675e-01
  6.7434090e-01
 -2.1774314e-01
  2.5592515e-01
  4.4364832e-02
 -2.8434473e-01
 -2.2689529e-01
 -1.8537734e-01
  1.5509137e-02
  1.5106516e-01
 -5.3577304e-01
  1.4987966e-01
  6.7268646e-01
 -3.6564399e-02
 -1.8057166e-01
  1.8723387e-01
 -1.5204775e-01
 -4.0689659e-01
 -7.1411014e-02
 -2.3317845e-01
 -3.8769662e-02
  1.1460738e-02
 -3.7260139e-01
 -5.9219871e-02
 -1.2923506e-01
  6.7499004e-02
  8.4596097e-02
 -6.5883204e-02
 -5.9634331e-03
 -2.3407757e-01
  1.1688823e-01
  1.5647435e-01
 -1.1610254e-01
 -2.8397408e-01
 -4.0945280e-01
 -3.3861682e-01
 -7.3895633e-02
 -2.6740512e-01
  6.3147992e-02
  1.9375032e-01
  2.7672689e-02
 -3.0422604e-03
 -1.4323837e-01
 -1.9546923e-01
  3.3750013e-02
 -7.0803590e-02
  5.5093631e-02
  6.3830161e-01
 -1.6964671e-01
 -1.0719310e-01
 -3.6740014e-01
 -3.5890732e-02
  4.1656081e-02
  2.3465745e-02
  8.0114430e-01
 -7.3728991e-01
  3.3000710e+00
  3.0579308e-01
 -1.2186263e+00
 -3.7715867e-01
  3.2138848e-01
  6.0822934e-01
 -4.4384372e-01
  9.9229831e-01
 -2.0883858e+00
 -1.5486426e+00
  1.3790870e-01
  6.2154546e-02
  8.9347050e-02
 -3.5530332e-01
  6.7804354e-01
  1.4997412e-01
 -1.1018746e-01
  1.7945452e-02
 -3.0277488e-01
  3.7756583e-01
 -9.8987341e-01
 -3.3634069e+00
  3.7486218e-02
  2.0796002e-01
  4.2802012e-01
 -6.6774711e-02
 -3.8752830e-01
 -9.7942203e-02
  2.4424777e+00
 -2.2302496e-01
  1.9350237e+00
 -3.3388624e-01
 -6.0013956e-01
 -1.4290853e-01
 -1.0098518e-01
 -7.7302620e-02
 -1.5094278e-02
  3.1914152e-02
 -3.1354117e-01
  3.4170439e-03
 -8.1412643e-02
 -1.8901692e-01
 -6.0207773e-02
  1.1962522e-01
  7.0148800e-03
 -2.7257551e-02
  1.8595617e-02
 -1.5863083e-02
  1.7087623e-02
 -2.9951058e-02
  2.7953645e-02
  1.1995160e-01
  6.2512420e-02
  2.8911930e-01
  2.1450279e+00
  9.4519854e-03
 -1.2696892e+00
  2.4780397e-01
  7.8444612e-01
  3.7646756e-02
 -1.4744523e+00
 -8.1435186e-01
 -1.4367726e-01
 -5.1817501e-01
 -1.2966187e-01
 -3.0541426e-01
  5.5726045e-03
 -1.9331276e-01
  4.2634085e-01
 -2.2584480e-01
 -7.3543549e-02
  6.9656938e-02
  7.7686176e-02
 -1.1778113e+00
 -4.2985607e-02
 -2.2824032e+00
 -7.7469319e-01
  5.8681641e-02
 -1.9593774e-01
  1.2129109e+00
 -5.4412508e-01
  7.8791714e-01
  5.6311633e-02
  5.3363019e-01
  9.8289572e-02
  4.8832100e-02
 -9.9732661e-01
  2.6849191e+00
  2.5801274e-03
 -1.0901871e+00
 -8.2095701e-01
 -1.5357185e-02
  7.6947010e-01
  2.9167598e-01
 -1.1813919e-01
 -2.6989287e-01
  2.2481506e-01
 -1.5419928e+00
  6.1095398e-02
  2.6811345e-02
  7.4797213e-02
  3.2886994e-01
  1.7822848e-01
  1.7502911e-01
  5.5722330e-02
  9.9721819e-02
 -1.0368080e+00
 -6.5935984e-02
 -2.8787741e-01
 -9.2147958e-01
  1.1196884e-01
 -3.2006633e-02
 -4.0238190e-02
  7.0591474e-01
 -1.7338479e-01
 -5.7704288e-01
  6.6324688e-02
 -1.2273182e+00
  2.3817560e-01
 -7.1154833e-02
 -4.3922458e-02
  2.1265438e-01
 -6.7689133e-01
 -3.4221720e-02
 -3.1273033e-02
  1.6702764e-01
 -7.4319637e-01
 -3.6899787e-01
  1.0406353e+00
 -1.2183079e-01
  4.8194464e-02
  2.6439318e-01
 -3.5120849e-02
  8.2871890e-01
  9.5712449e-03
 -1.8491171e-02
  5.0698930e-01
 -2.3638366e-03
  2.1999465e-01
 -7.3283970e-01
  8.9955255e-02
 -3.0312162e-02
  5.6430006e-01
 -1.2299072e+00
 -4.7415769e-01
 -9.8996377e-01
  1.5356466e-01
 -6.6343299e-03
 -9.2777878e-01
  1.2976639e-02
 -1.9046444e-01
 -1.9765551e-01
  6.1327229e+00
  5.0069124e-01
  3.3343947e-01
  1.8422617e-01
  9.9705255e-01
  8.0942142e-01
 -4.7248444e-01
  1.8064343e+00
 -5.1818544e-01
 -1.0811712e+00
 -1.2504820e+00
 -1.9637334e-01
 -8.4873247e-01
 -1.8478628e+00
 -3.0822380e+00
  1.5074128e-01
  5.6813216e-01
  5.6904358e-01
 -5.2980369e-01
 -2.8962505e-01
 -9.1720201e-02
  6.7118996e-01
 -1.7739764e-01
 -3.0053761e-02
  1.4353073e+00
 -3.7625054e-01
  1.0827460e+00
  1.7382181e+00
  2.2003788e-01
  1.0439186e+00
  1.3511728e+00
 -1.5314780e-01
 -1.5395284e+00
  2.1470827e-01
  1.1916765e+00
 -1.6740970e-01
  8.5854173e-01
 -7.2006220e-01
  1.9461294e+00
  6.7603570e-01
 -3.0107844e-01
  8.0212504e-01
 -2.6284149e+00
  1.4996737e+00
  4.3954741e-02
 -5.6155823e-02
 -1.2836225e+00
  2.9438514e-01
 -7.0907158e-01
  2.5174716e-01
 -7.2569138e-01
 -2.0468202e-01
  1.5946280e+00
  7.3222595e-01
  5.9375083e-01
  1.5933412e+00
  1.7587625e+00
  2.7836080e+00
 -1.3954599e+00
  3.1080439e+00
 -3.1684051e+00
  9.2729372e-01
  4.7863778e-02
  6.6893739e-01
 -2.1079624e+00
  3.4530419e-01
 -1.3162745e+00
 -2.4956603e-01
  6.5721083e-01
 -2.0732342e-01
 -1.9729614e+00
 -1.0252327e+00
 -1.3944989e+00
 -9.0379882e-01
 -1.8771780e+00
  5.6831437e-01
  6.8529677e-01
 -8.8553929e-01
  2.2995467e+00
 -7.5581616e-01
  1.1618607e-01
  1.1967300e-01
  9.8490113e-01
  1.8321498e-01
 -1.8181869e+00
 -6.6051614e-01
 -2.0663229e-01
  2.8938079e-01
 -1.6529293e-01
  2.0755978e+00
  3.4906008e+00
 -3.7565121e-01
  1.9191638e+00
 -8.5877120e-02
  5.3508931e-01
  6.9863194e-01
 -2.3309244e-02
 -9.7913754e-01
  2.0941624e-02
 -1.5646249e+00
  7.1818447e-01
 -1.0044551e+00
 -3.1583550e+00
 -1.3866385e+00
 -3.4453231e-01
 -1.9984695e-01
 -6.2714942e-02
 -4.8988912e-01
 -5.4133439e-01
 -6.0170752e-01
 -3.1204140e+00
  7.0457304e-01
  1.3525492e+00
  1.0188718e+00
 -3.1659633e-01
 -9.0639353e-01
  2.6820560e+00
 -4.6109357e-03
 -4.0280342e+00
  2.1176651e-01
 -2.1049068e+00
 -1.7457712e+00
 -1.9262645e-01
 -3.7850138e-02
  2.1949964e+00
 -1.6721772e+00
  7.3398882e-01
  1.4460526e+00
  6.5683675e-01
  2.0469166e-01
 -3.9240348e-01
 -1.0199589e-01
 -1.2329451e+00
  1.4704211e-01
  2.7817070e-01
 -2.0786873e-01
  9.6597165e-02
  9.6139920e-01
 -6.8062514e-01
 -2.2024262e-01
  1.1559221e+00
  7.5552922e-01
 -1.1392751e+00
 -1.2493545e-02
  7.5731748e-01
 -1.2292173e+00
 -9.1326773e-01
 -1.0019280e+00
  1.1410943e-01
  5.3971809e-01
  5.1168972e-01
  2.6569748e+00
 -6.9850886e-01
 -1.5948229e+00
  1.4287378e+00
 -2.8269022e+00
  8.5435075e-01
  8.8113791e-01
  1.3205786e+00
 -2.6079252e+00
  2.0436645e+00
 -8.3656824e-01
  8.7340367e-01
 -1.5039217e+00
  2.6443064e-01
 -4.9300972e-01
  5.4685867e-01
  4.3618333e-01
  7.9299980e-01
  1.8405898e-02
  1.8775972e+00
 -2.6531866e-01
  3.5011170e+00
  4.2100716e-01
  1.0653029e-01
  7.1990055e-01
 -2.0559328e+00
  1.6963693e-03
  7.6284748e-01
  1.1309874e+00
 -5.0929815e-01
 -3.0143693e-02
  6.9801646e-01
  4.2600855e-01
 -7.0606691e-01
 -9.3634671e-01
  1.1865817e+00
  1.6110057e+00
 -9.8266178e-01
 -1.0880195e+00
 -5.4161173e-01
  8.4572059e-01
  6.7252988e-01
  1.1340666e+00
  7.2344506e-01
  2.7089518e-02
 -4.6565372e-01
  4.4437423e-01
 -3.4143323e-01
  1.3404304e+00
  1.2421105e+00
 -2.0621867e+00
  5.9890968e-01
  1.8563366e+00
  1.3514599e+00
  3.1654817e-01
  1.3059647e+00
  4.7944906e-01
 -2.6309865e+00
 -5.3352630e-01
  3.1801674e-01
 -5.2499598e-01
  6.5929514e-01
  8.9183915e-01
  8.6319035e-01
 -2.1491904e+00
  1.4037973e-01
 -6.8202680e-01
  1.7549592e+00
  7.0819986e-01
  2.9701480e-01
  1.3163080e+00
  2.9318243e-01
  1.8093621e+00
 -1.8370187e+00
 -3.6712381e-01
  3.1983659e+00
 -3.8771536e-02
  1.5862025e+00
  4.1003537e-01
 -6.5741396e-01
  4.8678514e-01
 -4.8607443e-02
  1.0107290e+00
 -2.1568613e-01
  1.6867944e+00
  1.2277275e-01
 -4.4304138e-01
 -1.9023393e-01
  7.7794477e-02
  3.5939711e-01
 -1.0640924e+00
 -1.6153737e+00
 -5.5384326e-01
 -2.5986421e-01
  9.2283434e-01
 -3.9664528e+00
  1.4726690e+00
  3.6130986e-01
 -2.5244400e-01
  5.7470793e-01
 -1.1017562e-01
  3.5932508e-01
  1.1074165e+00
 -2.8907771e+00
 -5.0819892e-01
 -1.2109314e+00
 -5.1875037e-01
 -5.6790334e-01
  2.0767349e-01
 -3.3933321e-01
 -1.4257528e+00
 -1.0342891e-01
  3.9018807e-01
 -5.7607880e+00
  1.2135158e+00
 -7.6475936e-01
  2.3155048e+00
  5.6670642e-01
  1.1617035e+00
 -1.0912986e+00
 -5.0596023e+00
  1.9798863e+00
  9.8148394e-01
 -2.0414197e+00
 -6.7199689e-01
  1.6693777e+00
  4.0692404e-01
 -6.7891252e-01
 -8.4483403e-01
  1.7228264e+00
 -8.9407164e-01
  7.3005271e-01
  1.0428705e+00
  2.1070704e+00
 -9.2539407e-02
  2.8902715e-01
  3.8635013e-01
 -1.9675509e+00
 -1.4444461e+00
 -1.3114611e+00
 -1.2166165e+00
  4.3838575e-01
 -1.4593787e+00
  8.4059435e-01
 -1.3112272e+00
  2.7077763e+00
 -4.9036231e-02
  2.3159392e+00
 -6.6829413e-01
  1.1425940e+00
 -1.9275455e+00
  4.2359295e+00
  6.9906813e-01
  2.1783464e+00
 -9.3123561e-01
  2.5296503e-01
  1.3002212e+00
  5.4689724e-02
 -2.6024780e-01
  5.6213373e-01
 -7.6469886e-01
 -4.5462525e-01
 -2.9438701e-01
 -2.3922773e-02
 -9.6630150e-01
  9.6734099e-02
  2.4056278e-01
  9.6416456e-01
  5.0469357e-01
  2.0976021e+00
  5.6317335e-01
 -2.6301631e-01
  3.8288784e-01
 -1.3186310e-01
  6.4747483e-01
 -2.3412197e+00
 -4.3906221e-01
  3.6134570e+00
 -3.8064110e-01
  6.1405307e-01
 -5.1511860e-01
 -1.2116340e-02
 -6.6485405e-01
 -9.1636252e-01
 -4.3635535e-01
 -3.2918394e-01
 -6.6773552e-01
 -3.5699695e-01
 -2.7473581e-01
  7.3000211e-01
 -1.2047751e+00
  4.7071386e-02
  2.1958977e-02
  1.5320148e-01
  1.1128428e+00
 -1.8907884e+00
  2.3810710e-01
  1.0088910e+00
  8.3988512e-01
 -1.0576177e+00
 -1.0387014e+00
  6.7871523e-01
  1.7152224e-02
  8.8088775e-01
 -1.7705861e-01
 -4.7792017e-01
 -3.3697957e-01
 -1.2306558e+00
  9.3136680e-01
  8.4933629e-03
 -4.3875870e-01
 -1.8639787e+00
 -1.4754887e+00
  5.6723881e-01
  1.9592854e+00
  9.2105776e-01
 -1.6262749e+00
 -3.9030388e-02
 -1.2754352e+00
 -1.7811618e+00
  1.1120430e-01
 -6.9854808e-01
 -6.2009180e-01
  9.6376359e-01
  1.9067813e+00
  1.6504608e+00
 -3.4446576e-01
 -1.3214815e+00
 -8.2820433e-01
  1.2774411e-01
  8.4980959e-01
 -8.1467938e-01
 -1.7018479e-01
 -1.1416233e-01
  8.0847353e-02
  1.4356709e+00
 -1.5079930e+00
 -3.0484158e-01
  3.6081546e-03
 -1.6699745e-01
  4.6635023e-01
 -8.7613636e-01
 -8.3490825e-01
  5.9149897e-01
  4.8017150e-01
 -4.3591589e-01
 -2.9875553e-01
  1.3685305e+00
 -1.8510873e+00
  1.4954249e+00
  2.7252734e+00
 -5.2661079e-01
  5.9474361e-01
  5.9022795e-02
 -1.5743914e+00
  2.0200041e-01
 -1.5732614e+00
  7.3892164e-01
 -1.4590014e+00
 -5.4146391e-01
 -1.2771147e-01
  1.0812298e+00
  8.3623958e-01
 -1.5880700e+00
  7.5497723e-01
  1.4505953e+00
  7.8121752e-01
 -2.3805513e+00
  9.1278404e-01
 -7.3637742e-01
  3.3876514e-01
  3.2695910e-01
 -7.3262465e-01
  8.9309078e-01
 -3.3329567e-01
  1.0838232e+00
  2.8337681e-01
  2.1761441e+00
 -1.5576850e-01
 -1.3490204e+00
  1.2946570e+00
  2.9718740e+00
  5.4272270e-01
 -6.1385012e-01
  5.2698839e-01
  8.0577123e-01
  6.1367065e-01
  9.4125313e-01
 -3.6405736e-01
 -1.8366766e-01
 -7.5875252e-01
  6.3403732e-01
  9.6641713e-01
  1.2569218e+00
  5.5179542e-01
 -9.5317465e-01
 -7.6923674e-01
  4.1586965e-01
  3.2125196e-01
 -1.2006562e+00
 -1.2065111e+00
 -3.3150056e-01
  8.3099753e-01
  8.9197475e-01
 -9.1387653e-01
 -2.0757420e+00
  3.3840012e-02
  1.1047518e+00
  7.8420037e-01
 -1.1516274e-01
  5.1201531e-03
 -1.0208465e+00
  5.5490756e-01
 -1.9855752e+00
 -2.8775936e-01
 -3.6787179e-01
 -8.1096429e-01
 -1.1197597e+00
 -6.9017261e-01
  5.9873074e-01
 -1.2152538e+00
  1.1742448e+00
  4.7969773e-01
  3.8816458e-01
 -7.2707641e-01
  4.1360566e-01
  1.2154212e+00
  3.4262621e+00
  1.1514924e+00
  7.1935683e-01
  6.9803029e-01
  1.0969543e+00
 -1.8380773e-01
 -1.3032731e-01
 -1.1249567e+00
 -1.8218544e+00
  1.3241652e-01
  6.9671994e-01
 -1.4421598e+00
 -1.1392308e+00
 -1.7921644e+00
 -1.6940648e-02
 -8.8274890e-01
 -2.3224503e-02
 -1.3899623e+00
  6.9688126e-02
 -2.9278910e-01
 -3.9614230e-02
 -7.4421033e-02
  1.0122359e+00
 -3.8840644e-02
 -1.5668616e+00
 -9.9524391e-01
  2.2003174e-01
 -1.3187479e+00
 -9.1377676e-01
 -9.5935738e-01
 -1.5169739e+00
  7.1510416e-01
  3.9819591e+00
  1.3814036e+00
 -5.6515396e-02
  1.5665965e+00
  1.6805292e+00
  8.8694856e-02
  2.3092752e+00
 -7.1541023e-01
  2.5394595e+00
  1.0788330e+00
  1.7881338e-01
 -1.2412676e+00
 -8.4558880e-01
  1.6374149e+00
  1.3593858e-01
 -1.7458448e+00
 -3.0025647e+00
 -4.8986089e-01
  3.1118476e-01
  3.7586507e-01
  1.9451167e-01
 -2.1515334e-02
  3.9515030e-01
  9.0301538e-01
  2.8155806e+00
  3.3760494e-01
  1.6491528e+00
  5.0607532e-01
 -7.5466919e-01
 -8.9719605e-01
  2.6728685e+00
  1.0743567e+00
  1.1096661e+00
  9.7140783e-01
  1.6085830e-01
  1.6381546e+00
 -1.6764749e+00
 -1.8479101e-01
  5.2149273e-02
 -2.4511249e+00
  1.6357540e+00
 -1.7897161e+00
  2.4764736e+00
 -1.0995710e+00
 -2.4294856e+00
 -7.7436221e-01
  5.8983159e-01
 -2.3820398e+00
 -7.6204854e-01
 -1.1670381e+00
  2.8384583e+00
 -2.4396811e+00
 -8.3763844e-01
  1.5460230e+00
  5.9597147e-01
  2.0993514e-01
  1.7783728e-01
 -1.0033118e+00
  1.1278687e+00
  1.2530961e+00
 -8.5328013e-01
 -3.9425227e-01
  1.2278211e+00
  6.3165998e-01
  1.8821990e+00
 -7.8246039e-01
  5.9010081e-02
  9.7021073e-02
 -2.5172961e+00
  5.2985138e-01
 -2.5272875e+00
  1.5855731e+00
  1.5626671e+00
  1.8448281e-01
  5.7414185e-02
  2.9479474e-01
  1.1146421e-01
  8.3476841e-01
 -1.8475103e+00
  5.6848609e-01
 -1.0546212e+00
  4.3865955e-01
 -2.0320601e+00
  7.5676030e-01
  5.0587781e-02
 -2.3156463e-01
  5.7468563e-02
 -1.0692185e-01
  9.2967492e-01
 -5.0961816e-01
  2.3102318e-01
 -5.2341521e-01
 -8.2780218e-01
 -1.1353806e+00
  1.3890147e+00
  6.5134859e-01
  1.0755740e-01
  2.9077035e-01
 -3.8214233e-02
  1.2607233e-01
  2.9465961e-01
  1.8038348e+00
 -1.6146161e-03
 -3.1779461e-02
 -1.8764712e+00
  2.6271358e-01
 -1.6403978e-01
 -1.8588201e+00
  5.4051024e-01
 -4.4618508e-01
  2.7841273e-01
  8.6938679e-01
  2.4160163e-01
 -9.9182546e-01
  1.1256253e+00
 -1.7174162e-01
  9.8813790e-01
 -1.2769238e+00
  2.2011435e+00
  5.5931282e-01
  6.8281621e-01
 -1.2270175e-01
  6.2235180e-02
  1.5223775e+00
  1.1116974e+00
 -5.9403326e-02
  1.5472752e+00
  2.2659403e-01
  1.0816212e+00
  1.5505698e+00
 -4.8043910e-01
  2.8708208e-01
 -2.7375430e-01
  1.0733699e+00
  7.6459283e-01
